<?xml version="1.0"?>
<opencv_storage>
<opencv_ml_svm>
  <format>3</format>
  <svmType>C_SVC</svmType>
  <kernel>
    <type>RBF</type>
    <gamma>1.0000000000000000e-02</gamma></kernel>
  <C>10.</C>
  <term_criteria><iterations>200</iterations></term_criteria>
  <var_count>400</var_count>
  <class_count>10</class_count>
  <class_labels type_id="opencv-matrix">
    <rows>10</rows>
    <cols>1</cols>
    <dt>i</dt>
    <data>
      0 1 2 3 4 5 6 7 8 9</data></class_labels>
  <sv_total>2000</sv_total>
  <support_vectors>
    <_>
      0. 0. 0. 0. 0. 0. 0. 0. 0. 0. 0. 0. 0. 0. 0. 0. 0. 0. 0. 0. 0. 0.
      0. 0. 0. 0. 0. 0. 0. 0. 0. 0. 0. 0. 0. 0. 0. 0. 0. 0. 0. 0. 0. 0.
      0. 0. 0. 0. 0. 0. 0. 0. 0. 0. 0. 0. 0. 0. 0. 0. 0. 0. 0. 0. 0. 0.
      0. 0. 0. 0. 40. 168. 253. 168. 25. 0. 0. 0. 0. 0. 0. 0. 0. 0. 0.
      0. 0. 0. 0. 35. 203. 251. 241. 241. 86. 4. 0. 0. 0. 0. 0. 0. 0. 0.
      0. 0. 0. 0. 64. 203. 252. 252. 212. 147. 250. 105. 0. 0. 0. 0. 0.
      0. 0. 0. 0. 0. 0. 31. 226. 253. 206. 219. 238. 89. 228. 134. 0. 0.
      0. 0. 0. 0. 0. 0. 0. 0. 29. 238. 252. 194. 25. 103. 21. 0. 202.
      204. 20. 0. 0. 0. 0. 0. 0. 0. 0. 21. 157. 248. 154. 76. 0. 0. 0.
      0. 202. 237. 71. 0. 0. 0. 0. 0. 0. 0. 0. 85. 246. 98. 10. 5. 0. 0.
      0. 0. 202. 240. 78. 0. 0. 0. 0. 0. 0. 0. 12. 216. 206. 0. 0. 0. 0.
      0. 0. 0. 204. 239. 74. 0. 0. 0. 0. 0. 0. 0. 65. 247. 131. 0. 0. 0.
      0. 0. 0. 35. 218. 183. 26. 0. 0. 0. 0. 0. 0. 0. 68. 246. 89. 0. 0.
      0. 0. 0. 7. 179. 230. 57. 0. 0. 0. 0. 0. 0. 0. 0. 68. 237. 71. 0.
      0. 0. 9. 93. 200. 171. 21. 0. 0. 0. 0. 0. 0. 0. 0. 0. 68. 251.
      168. 38. 41. 127. 189. 225. 184. 46. 0. 0. 0. 0. 0. 0. 0. 0. 0. 0.
      59. 243. 252. 234. 234. 249. 216. 125. 0. 0. 0. 0. 0. 0. 0. 0. 0.
      0. 0. 0. 9. 111. 222. 253. 225. 129. 46. 0. 0. 0. 0. 0. 0. 0. 0.
      0. 0. 0. 0. 0. 0. 0. 0. 0. 0. 0. 0. 0. 0. 0. 0. 0. 0. 0. 0. 0. 0.
      0. 0. 0. 0. 0. 0. 0. 0. 0. 0. 0. 0. 0. 0. 0. 0. 0. 0. 0. 0. 0. 0.
      0. 0. 0. 0. 0. 0. 0. 0. 0. 0. 0. 0. 0. 0. 0. 0. 0.</_>
    <_>
      0. 0. 0. 0. 0. 0. 0. 0. 0. 0. 0. 0. 0. 0. 0. 0. 0. 0. 0. 0. 0. 0.
      0. 0. 0. 0. 0. 0. 0. 0. 0. 0. 0. 0. 0. 0. 0. 0. 0. 0. 0. 0. 0. 0.
      0. 0. 0. 0. 0. 0. 0. 0. 0. 0. 0. 0. 0. 0. 0. 0. 0. 0. 0. 0. 0. 0.
      0. 0. 0. 0. 0. 23. 120. 253. 147. 36. 1. 0. 0. 0. 0. 0. 0. 0. 0.
      0. 0. 0. 0. 0. 15. 133. 242. 252. 244. 183. 10. 0. 0. 0. 0. 0. 0.
      0. 0. 0. 0. 0. 29. 91. 232. 249. 251. 188. 239. 207. 12. 0. 0. 0.
      0. 0. 0. 0. 0. 0. 0. 55. 200. 247. 254. 252. 252. 95. 221. 208.
      12. 0. 0. 0. 0. 0. 0. 0. 0. 0. 55. 236. 248. 225. 237. 251. 243.
      88. 220. 207. 12. 0. 0. 0. 0. 0. 0. 0. 0. 59. 209. 248. 187. 26.
      123. 209. 67. 25. 196. 207. 12. 0. 0. 0. 0. 0. 0. 0. 0. 206. 251.
      145. 26. 2. 50. 37. 1. 1. 154. 207. 12. 0. 0. 0. 0. 0. 0. 4. 68.
      240. 101. 0. 0. 0. 0. 0. 0. 1. 154. 208. 12. 0. 0. 0. 0. 0. 0. 53.
      217. 251. 100. 0. 0. 0. 0. 0. 0. 25. 196. 207. 12. 0. 0. 0. 0. 0.
      0. 76. 239. 223. 45. 0. 0. 0. 0. 0. 0. 118. 248. 180. 9. 0. 0. 0.
      0. 0. 0. 76. 239. 233. 63. 0. 0. 0. 1. 44. 125. 234. 171. 23. 0.
      0. 0. 0. 0. 0. 0. 37. 210. 251. 192. 152. 76. 133. 154. 205. 245.
      118. 21. 0. 0. 0. 0. 0. 0. 0. 0. 0. 40. 200. 242. 251. 251. 251.
      245. 186. 75. 0. 0. 0. 0. 0. 0. 0. 0. 0. 0. 0. 0. 19. 115. 227.
      241. 171. 115. 30. 0. 0. 0. 0. 0. 0. 0. 0. 0. 0. 0. 0. 0. 0. 0. 0.
      0. 0. 0. 0. 0. 0. 0. 0. 0. 0. 0. 0. 0. 0. 0. 0. 0. 0. 0. 0. 0. 0.
      0. 0. 0. 0. 0. 0. 0. 0. 0. 0. 0. 0. 0. 0. 0. 0. 0. 0. 0. 0. 0. 0.
      0. 0. 0. 0. 0. 0. 0. 0.</_>
    <_>
      0. 0. 0. 0. 0. 0. 0. 0. 0. 0. 0. 0. 0. 0. 0. 0. 0. 0. 0. 0. 0. 0.
      0. 0. 0. 0. 0. 0. 0. 0. 0. 0. 0. 0. 0. 0. 0. 0. 0. 0. 0. 0. 0. 0.
      0. 0. 0. 0. 0. 0. 0. 0. 0. 0. 0. 0. 0. 0. 0. 0. 0. 0. 0. 0. 0. 0.
      0. 0. 0. 0. 37. 101. 101. 81. 10. 0. 0. 0. 0. 0. 0. 0. 0. 0. 0. 0.
      0. 0. 0. 0. 174. 252. 251. 241. 138. 40. 0. 0. 0. 0. 0. 0. 0. 0.
      0. 0. 0. 0. 13. 185. 245. 252. 251. 251. 253. 85. 0. 0. 0. 0. 0.
      0. 0. 0. 0. 0. 0. 0. 46. 223. 251. 252. 158. 214. 253. 85. 0. 0.
      0. 0. 0. 0. 0. 0. 0. 0. 0. 73. 253. 253. 228. 52. 0. 167. 255. 86.
      0. 0. 0. 0. 0. 0. 0. 0. 0. 0. 0. 125. 251. 251. 192. 0. 2. 170.
      253. 85. 0. 0. 0. 0. 0. 0. 0. 0. 0. 0. 0. 160. 251. 251. 81. 0.
      93. 236. 253. 85. 0. 0. 0. 0. 0. 0. 0. 0. 0. 0. 22. 253. 248. 159.
      13. 0. 217. 251. 241. 68. 0. 0. 0. 0. 0. 0. 0. 0. 0. 8. 138. 254.
      237. 43. 0. 30. 229. 252. 145. 0. 0. 0. 0. 0. 0. 0. 0. 0. 0. 22.
      194. 253. 237. 43. 2. 100. 251. 189. 19. 0. 0. 0. 0. 0. 0. 0. 0.
      0. 0. 22. 194. 253. 189. 19. 80. 227. 251. 152. 10. 0. 0. 0. 0. 0.
      0. 0. 0. 0. 0. 22. 195. 254. 186. 113. 233. 253. 181. 22. 1. 0. 0.
      0. 0. 0. 0. 0. 0. 0. 0. 21. 192. 253. 251. 251. 250. 232. 29. 0.
      0. 0. 0. 0. 0. 0. 0. 0. 0. 0. 0. 7. 110. 253. 251. 251. 218. 61.
      2. 0. 0. 0. 0. 0. 0. 0. 0. 0. 0. 0. 0. 0. 0. 124. 241. 102. 57. 0.
      0. 0. 0. 0. 0. 0. 0. 0. 0. 0. 0. 0. 0. 0. 0. 0. 0. 0. 0. 0. 0. 0.
      0. 0. 0. 0. 0. 0. 0. 0. 0. 0. 0. 0. 0. 0. 0. 0. 0. 0. 0. 0. 0. 0.
      0. 0. 0. 0.</_>
    <_>
      0. 0. 0. 0. 0. 0. 0. 0. 0. 0. 0. 0. 0. 0. 0. 0. 0. 0. 0. 0. 0. 0.
      0. 0. 0. 0. 0. 0. 0. 0. 0. 0. 0. 0. 0. 0. 0. 0. 0. 0. 0. 0. 0. 0.
      0. 0. 0. 0. 0. 0. 0. 0. 0. 0. 0. 0. 0. 0. 0. 0. 0. 0. 0. 0. 0. 0.
      0. 0. 0. 0. 15. 180. 236. 119. 16. 0. 0. 0. 0. 0. 0. 0. 0. 0. 0.
      0. 0. 0. 0. 10. 145. 229. 251. 203. 26. 0. 0. 0. 0. 0. 0. 0. 0. 0.
      0. 0. 0. 0. 0. 52. 228. 252. 251. 251. 138. 12. 0. 0. 0. 0. 0. 0.
      0. 0. 0. 0. 0. 0. 113. 177. 246. 253. 252. 252. 247. 76. 0. 0. 0.
      0. 0. 0. 0. 0. 0. 0. 0. 0. 187. 251. 251. 202. 107. 202. 253. 155.
      8. 0. 0. 0. 0. 0. 0. 0. 0. 4. 68. 154. 245. 208. 123. 45. 18. 207.
      253. 208. 14. 0. 0. 0. 0. 0. 0. 0. 0. 19. 184. 253. 251. 164. 0.
      0. 16. 201. 253. 228. 55. 0. 0. 0. 0. 0. 0. 0. 0. 63. 219. 254.
      122. 4. 0. 0. 16. 203. 247. 146. 8. 0. 0. 0. 0. 0. 0. 0. 0. 186.
      251. 253. 73. 1. 0. 0. 37. 251. 142. 15. 0. 0. 0. 0. 0. 0. 0. 0.
      0. 142. 251. 253. 121. 4. 6. 78. 129. 220. 117. 0. 0. 0. 0. 0. 0.
      0. 0. 0. 0. 208. 252. 222. 58. 54. 110. 209. 252. 142. 9. 0. 0. 0.
      0. 0. 0. 0. 0. 0. 0. 166. 251. 253. 224. 228. 252. 252. 234. 46.
      0. 0. 0. 0. 0. 0. 0. 0. 0. 0. 0. 172. 246. 253. 251. 251. 231.
      189. 44. 0. 0. 0. 0. 0. 0. 0. 0. 0. 0. 0. 0. 25. 170. 253. 214.
      146. 73. 16. 0. 0. 0. 0. 0. 0. 0. 0. 0. 0. 0. 0. 0. 0. 0. 0. 0. 0.
      0. 0. 0. 0. 0. 0. 0. 0. 0. 0. 0. 0. 0. 0. 0. 0. 0. 0. 0. 0. 0. 0.
      0. 0. 0. 0. 0. 0. 0. 0. 0. 0. 0. 0. 0. 0. 0. 0. 0. 0. 0. 0. 0. 0.
      0. 0. 0. 0. 0. 0.</_>
    <_>
      0. 0. 0. 0. 0. 0. 0. 0. 0. 0. 0. 0. 0. 0. 0. 0. 0. 0. 0. 0. 0. 0.
      0. 0. 0. 0. 0. 0. 0. 0. 0. 0. 0. 0. 0. 0. 0. 0. 0. 0. 0. 0. 0. 0.
      0. 0. 0. 0. 0. 0. 0. 0. 0. 0. 0. 0. 0. 0. 0. 0. 0. 0. 0. 0. 0. 0.
      0. 0. 0. 15. 54. 102. 102. 102. 97. 13. 0. 0. 0. 0. 0. 0. 0. 0. 0.
      0. 0. 0. 55. 168. 230. 253. 253. 253. 251. 150. 17. 0. 0. 0. 0. 0.
      0. 0. 0. 1. 21. 58. 227. 253. 254. 253. 251. 250. 253. 225. 46. 0.
      0. 0. 0. 0. 0. 0. 0. 13. 156. 246. 253. 253. 254. 253. 226. 192.
      253. 225. 46. 0. 0. 0. 0. 0. 0. 0. 0. 59. 229. 253. 253. 155. 111.
      219. 93. 161. 253. 226. 46. 0. 0. 0. 0. 0. 0. 0. 18. 226. 253.
      244. 114. 20. 2. 18. 2. 83. 238. 225. 46. 0. 0. 0. 0. 0. 0. 0.
      121. 251. 253. 148. 0. 0. 0. 0. 0. 147. 250. 225. 46. 0. 0. 0. 0.
      0. 0. 10. 158. 252. 171. 7. 0. 0. 0. 0. 0. 141. 249. 226. 46. 0.
      0. 0. 0. 0. 0. 47. 226. 240. 92. 0. 0. 0. 0. 0. 0. 63. 234. 226.
      46. 0. 0. 0. 0. 0. 0. 47. 226. 233. 62. 0. 0. 0. 0. 0. 0. 62. 234.
      226. 46. 0. 0. 0. 0. 0. 0. 89. 238. 233. 61. 0. 0. 0. 0. 0. 50.
      202. 252. 143. 2. 0. 0. 0. 0. 0. 0. 47. 226. 233. 62. 0. 0. 0. 0.
      53. 220. 253. 245. 71. 0. 0. 0. 0. 0. 0. 0. 44. 220. 250. 230. 90.
      66. 66. 127. 235. 250. 205. 78. 0. 0. 0. 0. 0. 0. 0. 0. 13. 164.
      253. 253. 253. 253. 253. 254. 253. 161. 26. 0. 0. 0. 0. 0. 0. 0.
      0. 0. 0. 32. 242. 253. 253. 253. 253. 235. 99. 4. 0. 0. 0. 0. 0.
      0. 0. 0. 0. 0. 0. 0. 0. 0. 0. 0. 0. 0. 0. 0. 0. 0. 0. 0. 0. 0. 0.
      0. 0. 0. 0. 0. 0. 0. 0. 0. 0. 0. 0. 0. 0. 0. 0. 0. 0. 0. 0.</_>
    <_>
      0. 0. 0. 0. 0. 0. 0. 0. 0. 0. 0. 0. 0. 0. 0. 0. 0. 0. 0. 0. 0. 0.
      0. 0. 0. 0. 0. 0. 0. 0. 0. 0. 0. 0. 0. 0. 0. 0. 0. 0. 0. 0. 0. 0.
      0. 0. 0. 0. 0. 0. 0. 0. 0. 0. 0. 0. 0. 0. 0. 0. 0. 0. 0. 0. 0. 0.
      0. 0. 30. 79. 86. 10. 0. 0. 0. 0. 0. 0. 0. 0. 0. 0. 0. 0. 0. 0. 9.
      133. 208. 242. 243. 181. 167. 125. 24. 0. 0. 0. 0. 0. 0. 0. 0. 0.
      0. 2. 73. 253. 253. 253. 253. 253. 253. 253. 201. 24. 0. 0. 0. 0.
      0. 0. 0. 0. 0. 40. 214. 253. 253. 253. 244. 215. 253. 253. 253.
      154. 3. 0. 0. 0. 0. 0. 0. 0. 0. 77. 253. 253. 253. 249. 107. 11.
      83. 243. 253. 205. 6. 0. 0. 0. 0. 0. 0. 0. 18. 209. 253. 253. 184.
      94. 0. 0. 0. 49. 174. 233. 76. 0. 0. 0. 0. 0. 0. 0. 121. 252. 247.
      202. 30. 1. 0. 0. 0. 0. 143. 253. 190. 0. 0. 0. 0. 0. 0. 0. 167.
      253. 208. 0. 0. 0. 0. 0. 0. 0. 59. 234. 226. 0. 0. 0. 0. 0. 0. 0.
      168. 253. 177. 0. 0. 0. 0. 0. 0. 0. 0. 158. 226. 0. 0. 0. 0. 0. 0.
      0. 167. 253. 208. 0. 0. 0. 0. 0. 0. 0. 2. 164. 226. 0. 0. 0. 0. 0.
      0. 0. 153. 253. 239. 107. 9. 0. 0. 0. 0. 0. 66. 253. 215. 0. 0. 0.
      0. 0. 0. 0. 38. 201. 253. 245. 148. 25. 0. 0. 0. 23. 186. 240.
      103. 0. 0. 0. 0. 0. 0. 0. 0. 35. 201. 253. 253. 195. 85. 48. 48.
      157. 246. 166. 4. 0. 0. 0. 0. 0. 0. 0. 0. 1. 49. 136. 204. 249.
      249. 248. 247. 248. 167. 5. 0. 0. 0. 0. 0. 0. 0. 0. 0. 0. 0. 0.
      15. 91. 205. 254. 253. 138. 15. 0. 0. 0. 0. 0. 0. 0. 0. 0. 0. 0.
      0. 0. 0. 0. 0. 0. 0. 0. 0. 0. 0. 0. 0. 0. 0. 0. 0. 0. 0. 0. 0. 0.
      0. 0. 0. 0. 0. 0. 0. 0. 0. 0. 0. 0.</_>
    <_>
      0. 0. 0. 0. 0. 0. 0. 0. 0. 0. 0. 0. 0. 0. 0. 0. 0. 0. 0. 0. 0. 0.
      0. 0. 0. 0. 0. 0. 0. 0. 0. 0. 0. 0. 0. 0. 0. 0. 0. 0. 0. 0. 0. 0.
      0. 0. 0. 0. 0. 0. 0. 0. 0. 0. 0. 0. 0. 0. 0. 0. 0. 0. 0. 0. 0. 0.
      0. 0. 0. 0. 21. 89. 101. 30. 0. 0. 0. 0. 0. 0. 0. 0. 0. 0. 0. 0.
      0. 0. 0. 67. 163. 245. 251. 169. 17. 0. 0. 0. 0. 0. 0. 0. 0. 0. 0.
      0. 0. 13. 145. 239. 253. 251. 251. 248. 161. 21. 0. 0. 0. 0. 0. 0.
      0. 0. 0. 0. 0. 111. 246. 251. 253. 251. 251. 252. 251. 139. 0. 0.
      0. 0. 0. 0. 0. 0. 0. 0. 75. 253. 253. 253. 255. 253. 253. 254.
      253. 190. 17. 0. 0. 0. 0. 0. 0. 0. 0. 2. 156. 251. 248. 246. 253.
      250. 205. 175. 239. 237. 86. 0. 0. 0. 0. 0. 0. 0. 0. 65. 221. 251.
      188. 127. 253. 196. 27. 35. 216. 250. 140. 0. 0. 0. 0. 0. 0. 0.
      31. 226. 252. 251. 45. 0. 57. 28. 0. 29. 215. 239. 94. 0. 0. 0. 0.
      0. 0. 20. 152. 252. 253. 252. 58. 0. 0. 0. 0. 29. 216. 252. 143.
      0. 0. 0. 0. 0. 0. 132. 248. 251. 237. 251. 203. 36. 0. 0. 16. 113.
      246. 224. 61. 0. 0. 0. 0. 0. 0. 144. 251. 198. 60. 85. 85. 37. 0.
      6. 150. 252. 218. 69. 0. 0. 0. 0. 0. 0. 0. 145. 252. 120. 2. 0. 0.
      0. 42. 181. 244. 172. 34. 2. 0. 0. 0. 0. 0. 0. 0. 142. 250. 204.
      92. 43. 43. 43. 202. 242. 154. 51. 0. 0. 0. 0. 0. 0. 0. 0. 0. 72.
      185. 251. 244. 237. 237. 237. 234. 108. 8. 0. 0. 0. 0. 0. 0. 0. 0.
      0. 0. 0. 30. 251. 252. 251. 251. 148. 64. 12. 0. 0. 0. 0. 0. 0. 0.
      0. 0. 0. 0. 0. 0. 0. 0. 0. 0. 0. 0. 0. 0. 0. 0. 0. 0. 0. 0. 0. 0.
      0. 0. 0. 0. 0. 0. 0. 0. 0. 0. 0. 0. 0. 0. 0. 0. 0. 0. 0.</_>
    <_>
      0. 0. 0. 0. 0. 0. 0. 0. 0. 0. 0. 0. 0. 0. 0. 0. 0. 0. 0. 0. 0. 0.
      0. 0. 0. 0. 0. 0. 0. 0. 0. 0. 0. 0. 0. 0. 0. 0. 0. 0. 0. 0. 0. 0.
      0. 0. 0. 0. 0. 0. 0. 0. 0. 0. 0. 0. 0. 0. 0. 0. 0. 0. 0. 0. 0. 0.
      0. 12. 95. 187. 253. 209. 34. 0. 0. 0. 0. 0. 0. 0. 0. 0. 0. 0. 0.
      0. 68. 210. 221. 97. 64. 198. 221. 68. 0. 0. 0. 0. 0. 0. 0. 0. 0.
      0. 5. 106. 229. 158. 27. 0. 0. 125. 238. 229. 160. 23. 0. 0. 0. 0.
      0. 0. 0. 0. 118. 245. 109. 0. 0. 0. 0. 44. 102. 68. 169. 195. 54.
      0. 0. 0. 0. 0. 0. 23. 215. 136. 0. 0. 0. 0. 0. 0. 0. 0. 0. 142.
      221. 0. 0. 0. 0. 0. 0. 95. 242. 0. 0. 0. 0. 0. 0. 0. 0. 0. 0. 20.
      194. 102. 0. 0. 0. 0. 0. 102. 196. 0. 0. 0. 0. 0. 0. 0. 0. 0. 0.
      0. 85. 192. 0. 0. 0. 0. 0. 97. 234. 0. 0. 0. 0. 0. 0. 0. 0. 0. 0.
      0. 52. 255. 0. 0. 0. 0. 0. 59. 233. 27. 0. 0. 0. 0. 0. 0. 0. 0. 0.
      0. 51. 255. 0. 0. 0. 0. 0. 12. 210. 181. 0. 0. 0. 0. 0. 0. 0. 0.
      0. 0. 85. 255. 0. 0. 0. 0. 0. 0. 91. 235. 122. 0. 0. 0. 0. 0. 0.
      0. 0. 2. 147. 164. 0. 0. 0. 0. 0. 0. 5. 101. 235. 113. 0. 0. 0. 0.
      0. 0. 0. 74. 214. 23. 0. 0. 0. 0. 0. 0. 0. 0. 68. 221. 221. 133.
      51. 51. 51. 92. 209. 223. 88. 0. 0. 0. 0. 0. 0. 0. 0. 0. 0. 34.
      95. 160. 204. 204. 204. 184. 112. 47. 5. 0. 0. 0. 0. 0. 0. 0. 0.
      0. 0. 0. 0. 0. 0. 0. 0. 0. 0. 0. 0. 0. 0. 0. 0. 0. 0. 0. 0. 0. 0.
      0. 0. 0. 0. 0. 0. 0. 0. 0. 0. 0. 0. 0. 0. 0. 0. 0. 0. 0. 0. 0. 0.
      0. 0. 0. 0. 0. 0. 0. 0. 0. 0. 0.</_>
    <_>
      0. 0. 0. 0. 0. 0. 0. 0. 0. 0. 0. 0. 0. 0. 0. 0. 0. 0. 0. 0. 0. 0.
      0. 0. 0. 0. 0. 0. 0. 0. 0. 0. 0. 0. 0. 0. 0. 0. 0. 0. 0. 0. 0. 0.
      0. 0. 0. 0. 0. 0. 0. 0. 0. 0. 0. 0. 0. 0. 0. 0. 0. 0. 0. 0. 0. 0.
      0. 0. 32. 97. 101. 101. 86. 15. 2. 0. 0. 0. 0. 0. 0. 0. 0. 0. 0.
      0. 0. 0. 117. 245. 250. 250. 244. 179. 39. 0. 0. 0. 0. 0. 0. 0. 0.
      0. 0. 0. 5. 94. 231. 251. 250. 250. 252. 240. 78. 0. 0. 0. 0. 0.
      0. 0. 0. 0. 0. 0. 101. 239. 251. 253. 251. 251. 253. 231. 87. 0.
      0. 0. 0. 0. 0. 0. 0. 0. 0. 0. 90. 190. 250. 252. 250. 201. 171.
      250. 250. 66. 0. 0. 0. 0. 0. 0. 0. 0. 0. 0. 62. 214. 250. 239.
      112. 31. 204. 250. 250. 38. 0. 0. 0. 0. 0. 0. 0. 0. 0. 0. 70. 252.
      252. 84. 5. 0. 91. 252. 252. 130. 0. 0. 0. 0. 0. 0. 0. 0. 0. 37.
      196. 250. 195. 28. 0. 0. 156. 250. 250. 77. 0. 0. 0. 0. 0. 0. 0.
      0. 0. 87. 239. 250. 130. 6. 0. 0. 155. 250. 250. 78. 0. 0. 0. 0.
      0. 0. 0. 0. 0. 67. 238. 232. 48. 0. 0. 0. 92. 252. 220. 130. 0. 0.
      0. 0. 0. 0. 0. 0. 0. 139. 246. 173. 14. 0. 0. 0. 252. 250. 89. 0.
      0. 0. 0. 0. 0. 0. 0. 0. 0. 51. 233. 242. 126. 6. 20. 136. 252.
      250. 89. 0. 0. 0. 0. 0. 0. 0. 0. 0. 0. 122. 230. 252. 252. 253.
      252. 252. 253. 191. 20. 0. 0. 0. 0. 0. 0. 0. 0. 0. 0. 10. 67. 196.
      250. 251. 250. 250. 252. 153. 13. 0. 0. 0. 0. 0. 0. 0. 0. 0. 0. 0.
      0. 20. 202. 252. 226. 81. 49. 17. 0. 0. 0. 0. 0. 0. 0. 0. 0. 0. 0.
      0. 0. 0. 0. 0. 0. 0. 0. 0. 0. 0. 0. 0. 0. 0. 0. 0. 0. 0. 0. 0. 0.
      0. 0. 0. 0. 0. 0. 0. 0. 0. 0. 0. 0. 0.</_>
    <_>
      0. 0. 0. 0. 0. 0. 0. 0. 0. 0. 0. 0. 0. 0. 0. 0. 0. 0. 0. 0. 0. 0.
      0. 0. 0. 0. 0. 0. 0. 0. 0. 0. 0. 0. 0. 0. 0. 0. 0. 0. 0. 0. 0. 0.
      0. 0. 0. 0. 0. 0. 0. 0. 0. 0. 0. 0. 0. 0. 0. 0. 0. 0. 0. 0. 0. 0.
      0. 0. 0. 0. 27. 66. 102. 69. 11. 0. 0. 0. 0. 0. 0. 0. 0. 0. 0. 0.
      0. 0. 0. 45. 201. 235. 253. 237. 143. 4. 0. 0. 0. 0. 0. 0. 0. 0.
      0. 0. 0. 0. 2. 198. 253. 253. 253. 253. 246. 72. 0. 0. 0. 0. 0. 0.
      0. 0. 0. 0. 0. 0. 41. 221. 253. 253. 253. 253. 211. 8. 0. 0. 0. 0.
      0. 0. 0. 0. 0. 0. 0. 0. 148. 250. 253. 234. 253. 253. 207. 0. 0.
      0. 0. 0. 0. 0. 0. 0. 0. 0. 13. 62. 244. 232. 204. 64. 140. 250.
      211. 9. 0. 0. 0. 0. 0. 0. 0. 0. 0. 0. 109. 233. 222. 67. 30. 1.
      17. 228. 246. 72. 0. 0. 0. 0. 0. 0. 0. 0. 0. 32. 207. 252. 69. 0.
      0. 0. 0. 128. 253. 85. 0. 0. 0. 0. 0. 0. 0. 0. 0. 151. 239. 141.
      6. 0. 0. 0. 0. 126. 253. 85. 0. 0. 0. 0. 0. 0. 0. 0. 9. 212. 213.
      0. 0. 0. 0. 0. 0. 136. 219. 22. 0. 0. 0. 0. 0. 0. 0. 0. 85. 253.
      125. 0. 0. 0. 0. 11. 123. 240. 161. 0. 0. 0. 0. 0. 0. 0. 0. 0. 85.
      253. 125. 0. 0. 0. 24. 154. 248. 178. 28. 0. 0. 0. 0. 0. 0. 0. 0.
      0. 9. 213. 240. 228. 104. 97. 200. 251. 193. 28. 0. 0. 0. 0. 0. 0.
      0. 0. 0. 0. 0. 121. 231. 253. 253. 253. 235. 130. 23. 0. 0. 0. 0.
      0. 0. 0. 0. 0. 0. 0. 0. 0. 45. 179. 212. 101. 69. 0. 0. 0. 0. 0.
      0. 0. 0. 0. 0. 0. 0. 0. 0. 0. 0. 0. 0. 0. 0. 0. 0. 0. 0. 0. 0. 0.
      0. 0. 0. 0. 0. 0. 0. 0. 0. 0. 0. 0. 0. 0. 0. 0. 0. 0. 0. 0. 0. 0.</_>
    <_>
      0. 0. 0. 0. 0. 0. 0. 0. 0. 0. 0. 0. 0. 0. 0. 0. 0. 0. 0. 0. 0. 0.
      0. 0. 0. 0. 0. 0. 0. 0. 0. 0. 0. 0. 0. 0. 0. 0. 0. 0. 0. 0. 0. 0.
      0. 0. 0. 0. 0. 0. 0. 0. 0. 0. 0. 0. 0. 0. 0. 0. 0. 0. 0. 0. 0. 0.
      0. 0. 0. 9. 83. 102. 102. 102. 102. 20. 0. 0. 0. 0. 0. 0. 0. 0. 0.
      0. 0. 0. 2. 127. 244. 253. 253. 253. 253. 48. 0. 0. 0. 0. 0. 0. 0.
      0. 0. 0. 0. 3. 116. 243. 253. 253. 232. 186. 249. 48. 0. 0. 0. 0.
      0. 0. 0. 0. 0. 0. 8. 45. 237. 253. 251. 234. 106. 94. 245. 48. 0.
      0. 0. 0. 0. 0. 0. 0. 0. 0. 74. 253. 253. 253. 239. 73. 0. 180.
      253. 48. 0. 0. 0. 0. 0. 0. 0. 0. 0. 0. 43. 231. 253. 221. 58. 9.
      9. 192. 253. 48. 0. 0. 0. 0. 0. 0. 0. 0. 0. 0. 74. 253. 249. 104.
      0. 0. 47. 244. 250. 47. 0. 0. 0. 0. 0. 0. 0. 0. 0. 9. 129. 253.
      136. 7. 0. 0. 53. 253. 161. 0. 0. 0. 0. 0. 0. 0. 0. 0. 0. 108.
      238. 237. 37. 0. 0. 0. 53. 250. 142. 0. 0. 0. 0. 0. 0. 0. 0. 0. 0.
      163. 253. 124. 0. 0. 0. 0. 156. 239. 44. 0. 0. 0. 0. 0. 0. 0. 0.
      0. 26. 210. 183. 3. 0. 0. 3. 66. 241. 224. 36. 0. 0. 0. 0. 0. 0.
      0. 0. 0. 49. 253. 187. 29. 29. 29. 133. 220. 246. 104. 6. 0. 0. 0.
      0. 0. 0. 0. 0. 0. 22. 202. 253. 253. 253. 253. 253. 250. 173. 0.
      0. 0. 0. 0. 0. 0. 0. 0. 0. 0. 0. 128. 234. 253. 253. 253. 244.
      140. 26. 0. 0. 0. 0. 0. 0. 0. 0. 0. 0. 0. 0. 3. 52. 96. 253. 253.
      121. 22. 0. 0. 0. 0. 0. 0. 0. 0. 0. 0. 0. 0. 0. 0. 0. 0. 0. 0. 0.
      0. 0. 0. 0. 0. 0. 0. 0. 0. 0. 0. 0. 0. 0. 0. 0. 0. 0. 0. 0. 0. 0.
      0. 0. 0. 0. 0. 0. 0.</_>
    <_>
      0. 0. 0. 0. 0. 0. 0. 0. 0. 0. 0. 0. 0. 0. 0. 0. 0. 0. 0. 0. 0. 0.
      0. 0. 0. 0. 0. 0. 0. 0. 0. 0. 0. 0. 0. 0. 0. 0. 0. 0. 0. 0. 0. 0.
      0. 0. 0. 0. 0. 0. 0. 0. 0. 0. 0. 0. 0. 0. 0. 0. 0. 0. 0. 0. 0. 0.
      3. 78. 177. 247. 243. 153. 10. 0. 0. 0. 0. 0. 0. 0. 0. 0. 0. 0. 0.
      2. 92. 239. 240. 143. 230. 253. 148. 52. 0. 0. 0. 0. 0. 0. 0. 0.
      0. 0. 0. 28. 202. 253. 108. 151. 245. 223. 251. 206. 46. 0. 0. 0.
      0. 0. 0. 0. 0. 0. 0. 103. 246. 167. 75. 229. 128. 42. 113. 233.
      206. 30. 0. 0. 0. 0. 0. 0. 0. 0. 1. 189. 253. 29. 34. 199. 31. 0.
      0. 144. 253. 178. 12. 0. 0. 0. 0. 0. 0. 0. 29. 253. 214. 8. 0. 0.
      0. 0. 0. 21. 195. 237. 72. 0. 0. 0. 0. 0. 0. 0. 29. 253. 160. 0.
      0. 0. 0. 0. 0. 1. 120. 250. 113. 0. 0. 0. 0. 0. 0. 0. 106. 253.
      129. 0. 0. 0. 0. 0. 0. 0. 38. 253. 122. 0. 0. 0. 0. 0. 0. 0. 98.
      253. 148. 0. 0. 0. 0. 0. 0. 0. 38. 253. 122. 0. 0. 0. 0. 0. 0. 0.
      29. 253. 200. 0. 0. 0. 0. 0. 0. 6. 170. 245. 95. 0. 0. 0. 0. 0. 0.
      0. 15. 222. 225. 14. 0. 0. 0. 0. 0. 52. 225. 202. 40. 0. 0. 0. 0.
      0. 0. 0. 0. 187. 253. 53. 0. 0. 0. 0. 48. 206. 251. 76. 2. 0. 0.
      0. 0. 0. 0. 0. 0. 98. 245. 235. 59. 23. 48. 118. 250. 230. 102.
      10. 0. 0. 0. 0. 0. 0. 0. 0. 0. 19. 177. 253. 224. 199. 240. 249.
      222. 85. 6. 0. 0. 0. 0. 0. 0. 0. 0. 0. 0. 0. 0. 0. 0. 0. 0. 0. 0.
      0. 0. 0. 0. 0. 0. 0. 0. 0. 0. 0. 0. 0. 0. 0. 0. 0. 0. 0. 0. 0. 0.
      0. 0. 0. 0. 0. 0. 0. 0. 0. 0. 0. 0. 0. 0. 0. 0. 0. 0. 0. 0. 0. 0.
      0. 0. 0.</_>
    <_>
      0. 0. 0. 0. 0. 0. 0. 0. 0. 0. 0. 0. 0. 0. 0. 0. 0. 0. 0. 0. 0. 0.
      0. 0. 0. 0. 0. 0. 0. 0. 0. 0. 0. 0. 0. 0. 0. 0. 0. 0. 0. 0. 0. 0.
      0. 0. 0. 0. 0. 0. 0. 0. 0. 0. 0. 0. 0. 0. 0. 0. 0. 0. 0. 0. 0. 0.
      0. 0. 2. 57. 157. 254. 253. 89. 0. 0. 0. 0. 0. 0. 0. 0. 0. 0. 0.
      0. 0. 0. 77. 222. 249. 253. 253. 169. 26. 0. 0. 0. 0. 0. 0. 0. 0.
      0. 0. 0. 0. 14. 223. 253. 253. 251. 239. 253. 116. 0. 0. 0. 0. 0.
      0. 0. 0. 0. 0. 0. 4. 124. 250. 253. 224. 128. 213. 253. 206. 0. 0.
      0. 0. 0. 0. 0. 0. 0. 0. 0. 84. 253. 253. 253. 123. 15. 253. 253.
      207. 0. 0. 0. 0. 0. 0. 0. 0. 0. 0. 6. 146. 253. 253. 117. 4. 1.
      123. 253. 206. 0. 0. 0. 0. 0. 0. 0. 0. 0. 0. 36. 209. 253. 184.
      23. 0. 0. 85. 245. 206. 0. 0. 0. 0. 0. 0. 0. 0. 0. 0. 87. 253.
      253. 90. 0. 0. 0. 0. 202. 206. 0. 0. 0. 0. 0. 0. 0. 0. 0. 0. 176.
      253. 253. 14. 0. 0. 0. 0. 170. 206. 0. 0. 0. 0. 0. 0. 0. 0. 0. 0.
      208. 253. 189. 8. 0. 0. 0. 53. 237. 147. 0. 0. 0. 0. 0. 0. 0. 0.
      0. 0. 208. 253. 114. 0. 0. 12. 63. 237. 211. 45. 0. 0. 0. 0. 0. 0.
      0. 0. 0. 0. 208. 253. 212. 54. 148. 189. 230. 253. 116. 2. 0. 0.
      0. 0. 0. 0. 0. 0. 0. 0. 200. 253. 253. 253. 253. 253. 244. 205.
      23. 0. 0. 0. 0. 0. 0. 0. 0. 0. 0. 0. 94. 232. 253. 253. 253. 231.
      114. 6. 1. 0. 0. 0. 0. 0. 0. 0. 0. 0. 0. 0. 0. 0. 0. 0. 0. 0. 0.
      0. 0. 0. 0. 0. 0. 0. 0. 0. 0. 0. 0. 0. 0. 0. 0. 0. 0. 0. 0. 0. 0.
      0. 0. 0. 0. 0. 0. 0. 0. 0. 0. 0. 0. 0. 0. 0. 0. 0. 0. 0. 0. 0. 0.
      0. 0. 0. 0.</_>
    <_>
      0. 0. 0. 0. 0. 0. 0. 0. 0. 0. 0. 0. 0. 0. 0. 0. 0. 0. 0. 0. 0. 0.
      0. 0. 0. 0. 0. 0. 0. 0. 0. 0. 0. 0. 0. 0. 0. 0. 0. 0. 0. 0. 0. 0.
      0. 0. 0. 0. 0. 0. 0. 0. 0. 0. 0. 0. 0. 0. 0. 0. 0. 0. 0. 0. 0. 6.
      57. 137. 103. 17. 0. 0. 0. 0. 0. 0. 0. 0. 0. 0. 0. 0. 0. 0. 0.
      121. 229. 254. 244. 174. 79. 140. 140. 75. 8. 0. 0. 0. 0. 0. 0. 0.
      0. 2. 93. 244. 174. 76. 86. 209. 192. 184. 226. 228. 186. 36. 2.
      0. 0. 0. 0. 0. 0. 32. 211. 191. 24. 0. 0. 125. 19. 23. 47. 65.
      226. 206. 44. 0. 0. 0. 0. 0. 0. 62. 234. 74. 0. 0. 0. 0. 0. 0. 0.
      0. 49. 239. 162. 0. 0. 0. 0. 0. 0. 94. 250. 62. 0. 0. 0. 0. 0. 0.
      0. 0. 0. 106. 226. 40. 0. 0. 0. 0. 0. 101. 253. 62. 0. 0. 0. 0. 0.
      0. 0. 0. 0. 38. 225. 138. 0. 0. 0. 0. 0. 71. 238. 99. 1. 0. 0. 0.
      0. 0. 0. 0. 0. 15. 183. 164. 0. 0. 0. 0. 0. 28. 210. 200. 22. 0.
      0. 0. 0. 0. 0. 0. 0. 9. 164. 232. 0. 0. 0. 0. 0. 0. 118. 248. 119.
      0. 0. 0. 0. 0. 0. 0. 0. 19. 189. 200. 0. 0. 0. 0. 0. 0. 2. 150.
      239. 147. 33. 1. 0. 0. 0. 0. 4. 89. 232. 111. 0. 0. 0. 0. 0. 0. 0.
      17. 131. 254. 210. 140. 91. 40. 16. 73. 164. 235. 169. 9. 0. 0. 0.
      0. 0. 0. 0. 0. 14. 125. 215. 240. 251. 246. 245. 242. 229. 176.
      27. 0. 0. 0. 0. 0. 0. 0. 0. 0. 0. 2. 25. 75. 121. 93. 85. 79. 52.
      10. 0. 0. 0. 0. 0. 0. 0. 0. 0. 0. 0. 0. 0. 0. 0. 0. 0. 0. 0. 0. 0.
      0. 0. 0. 0. 0. 0. 0. 0. 0. 0. 0. 0. 0. 0. 0. 0. 0. 0. 0. 0. 0. 0.
      0. 0. 0. 0. 0. 0. 0. 0. 0. 0. 0. 0. 0. 0. 0. 0. 0. 0. 0. 0. 0.</_>
    <_>
      0. 0. 0. 0. 0. 0. 0. 0. 0. 0. 0. 0. 0. 0. 0. 0. 0. 0. 0. 0. 0. 0.
      0. 0. 0. 0. 0. 0. 0. 0. 0. 0. 0. 0. 0. 0. 0. 0. 0. 0. 0. 0. 0. 0.
      0. 0. 0. 0. 0. 0. 0. 0. 0. 0. 0. 0. 0. 0. 0. 0. 0. 0. 0. 0. 0. 0.
      0. 0. 0. 0. 1. 4. 0. 0. 0. 0. 0. 0. 0. 0. 0. 0. 0. 0. 0. 0. 0. 0.
      3. 51. 134. 174. 54. 0. 0. 0. 0. 0. 0. 0. 0. 0. 0. 0. 0. 0. 10.
      47. 149. 242. 252. 252. 241. 148. 74. 22. 5. 0. 0. 0. 0. 0. 0. 0.
      3. 61. 158. 228. 252. 252. 252. 240. 216. 245. 244. 196. 118. 2.
      0. 0. 0. 0. 0. 2. 118. 252. 252. 252. 252. 252. 237. 86. 0. 82.
      217. 252. 252. 104. 0. 0. 0. 0. 0. 90. 225. 226. 252. 252. 168.
      41. 23. 0. 0. 0. 34. 196. 252. 239. 0. 0. 0. 0. 0. 28. 134. 233.
      252. 199. 25. 1. 0. 0. 0. 0. 0. 67. 242. 252. 0. 0. 0. 0. 0. 43.
      220. 252. 188. 30. 0. 0. 0. 0. 0. 0. 6. 139. 252. 180. 0. 0. 0. 0.
      0. 101. 253. 236. 87. 0. 0. 0. 0. 0. 0. 1. 84. 245. 230. 54. 0. 0.
      0. 0. 0. 101. 252. 173. 0. 0. 0. 0. 0. 0. 0. 62. 231. 252. 142. 0.
      0. 0. 0. 0. 0. 87. 245. 204. 37. 0. 0. 0. 0. 25. 91. 228. 246.
      183. 30. 0. 0. 0. 0. 0. 0. 25. 194. 249. 198. 154. 69. 95. 151.
      183. 240. 246. 167. 25. 1. 0. 0. 0. 0. 0. 0. 0. 62. 194. 246. 252.
      252. 252. 252. 246. 229. 139. 11. 0. 0. 0. 0. 0. 0. 0. 0. 0. 0.
      27. 98. 170. 187. 187. 172. 97. 55. 7. 0. 0. 0. 0. 0. 0. 0. 0. 0.
      0. 0. 0. 0. 0. 0. 0. 0. 0. 0. 0. 0. 0. 0. 0. 0. 0. 0. 0. 0. 0. 0.
      0. 0. 0. 0. 0. 0. 0. 0. 0. 0. 0. 0. 0. 0. 0. 0. 0. 0. 0. 0. 0. 0.
      0. 0. 0. 0. 0. 0. 0. 0. 0. 0. 0. 0. 0.</_>
    <_>
      0. 0. 0. 0. 0. 0. 0. 0. 0. 0. 0. 0. 0. 0. 0. 0. 0. 0. 0. 0. 0. 0.
      0. 0. 0. 0. 0. 0. 0. 0. 0. 0. 0. 0. 0. 0. 0. 0. 0. 0. 0. 0. 0. 0.
      0. 0. 0. 0. 0. 0. 0. 0. 0. 0. 0. 0. 0. 0. 0. 0. 0. 0. 0. 0. 0. 0.
      0. 0. 0. 1. 106. 228. 230. 149. 18. 0. 0. 0. 0. 0. 0. 0. 0. 0. 0.
      0. 0. 0. 0. 58. 236. 146. 71. 207. 107. 0. 0. 0. 0. 0. 0. 0. 0. 0.
      0. 0. 0. 7. 98. 205. 173. 16. 0. 87. 210. 7. 0. 0. 0. 0. 0. 0. 0.
      0. 0. 0. 12. 143. 245. 253. 191. 15. 0. 23. 206. 101. 0. 0. 0. 0.
      0. 0. 0. 0. 0. 0. 103. 254. 192. 181. 29. 0. 0. 0. 137. 182. 0. 0.
      0. 0. 0. 0. 0. 0. 0. 14. 174. 166. 71. 159. 0. 0. 0. 0. 99. 206.
      21. 0. 0. 0. 0. 0. 0. 0. 0. 38. 220. 71. 33. 107. 0. 0. 0. 0. 99.
      230. 55. 0. 0. 0. 0. 0. 0. 0. 0. 104. 227. 3. 0. 0. 0. 0. 0. 2.
      135. 223. 43. 0. 0. 0. 0. 0. 0. 0. 0. 140. 201. 6. 0. 0. 0. 0. 0.
      12. 199. 191. 7. 0. 0. 0. 0. 0. 0. 0. 0. 100. 228. 0. 0. 0. 0. 0.
      0. 23. 211. 143. 0. 0. 0. 0. 0. 0. 0. 0. 0. 60. 223. 14. 0. 0. 0.
      0. 0. 120. 221. 33. 0. 0. 0. 0. 0. 0. 0. 0. 0. 29. 209. 143. 0. 0.
      0. 8. 103. 226. 88. 1. 0. 0. 0. 0. 0. 0. 0. 0. 0. 8. 142. 246.
      173. 136. 140. 204. 242. 139. 8. 0. 0. 0. 0. 0. 0. 0. 0. 0. 0. 0.
      16. 122. 218. 211. 198. 155. 77. 10. 0. 0. 0. 0. 0. 0. 0. 0. 0. 0.
      0. 0. 0. 0. 0. 0. 0. 0. 0. 0. 0. 0. 0. 0. 0. 0. 0. 0. 0. 0. 0. 0.
      0. 0. 0. 0. 0. 0. 0. 0. 0. 0. 0. 0. 0. 0. 0. 0. 0. 0. 0. 0. 0. 0.
      0. 0. 0. 0. 0. 0. 0. 0. 0. 0. 0. 0.</_>
    <_>
      0. 0. 0. 0. 0. 0. 0. 0. 0. 0. 0. 0. 0. 0. 0. 0. 0. 0. 0. 0. 0. 0.
      0. 0. 0. 0. 0. 0. 0. 0. 0. 0. 0. 0. 0. 0. 0. 0. 0. 0. 0. 0. 0. 0.
      0. 0. 0. 0. 0. 0. 0. 0. 0. 0. 0. 0. 0. 0. 0. 0. 0. 0. 0. 0. 0. 0.
      0. 0. 0. 0. 2. 84. 254. 196. 141. 103. 11. 0. 0. 0. 0. 0. 0. 0. 0.
      0. 0. 0. 0. 3. 116. 211. 253. 253. 253. 221. 47. 0. 0. 0. 0. 0. 0.
      0. 0. 0. 0. 0. 13. 137. 253. 253. 253. 253. 253. 239. 91. 0. 0. 0.
      0. 0. 0. 0. 0. 0. 1. 50. 155. 242. 253. 253. 253. 247. 248. 253.
      140. 0. 0. 0. 0. 0. 0. 0. 0. 0. 50. 253. 253. 253. 240. 227. 253.
      123. 143. 253. 140. 0. 0. 0. 0. 0. 0. 0. 0. 50. 203. 253. 223.
      169. 83. 69. 95. 30. 143. 253. 140. 0. 0. 0. 0. 0. 0. 0. 3. 150.
      252. 227. 119. 12. 2. 2. 2. 0. 143. 253. 140. 0. 0. 0. 0. 0. 0.
      10. 127. 253. 242. 50. 0. 0. 0. 0. 0. 35. 202. 235. 78. 0. 0. 0.
      0. 0. 0. 51. 226. 246. 146. 0. 0. 0. 0. 0. 0. 129. 243. 228. 52.
      0. 0. 0. 0. 0. 0. 112. 245. 225. 45. 0. 0. 0. 0. 42. 170. 249.
      253. 80. 17. 0. 0. 0. 0. 0. 0. 141. 253. 202. 88. 0. 0. 14. 48.
      131. 253. 229. 96. 0. 0. 0. 0. 0. 0. 0. 0. 91. 239. 253. 235. 143.
      143. 167. 226. 243. 253. 73. 12. 0. 0. 0. 0. 0. 0. 0. 0. 33. 187.
      253. 253. 253. 253. 253. 233. 144. 6. 0. 0. 0. 0. 0. 0. 0. 0. 0.
      0. 0. 35. 189. 253. 253. 253. 219. 76. 18. 0. 0. 0. 0. 0. 0. 0. 0.
      0. 0. 0. 0. 0. 0. 0. 0. 0. 0. 0. 0. 0. 0. 0. 0. 0. 0. 0. 0. 0. 0.
      0. 0. 0. 0. 0. 0. 0. 0. 0. 0. 0. 0. 0. 0. 0. 0. 0. 0. 0. 0. 0. 0.
      0. 0. 0. 0. 0. 0. 0. 0. 0. 0. 0. 0. 0. 0. 0. 0.</_>
    <_>
      0. 0. 0. 0. 0. 0. 0. 0. 0. 0. 0. 0. 0. 0. 0. 0. 0. 0. 0. 0. 0. 0.
      0. 0. 0. 0. 0. 0. 0. 0. 0. 0. 0. 0. 0. 0. 0. 0. 0. 0. 0. 0. 0. 0.
      0. 0. 0. 0. 0. 0. 0. 0. 0. 0. 0. 0. 0. 0. 0. 0. 0. 0. 0. 0. 0. 0.
      0. 34. 53. 184. 251. 252. 251. 209. 52. 3. 27. 6. 0. 0. 0. 0. 0.
      0. 0. 0. 51. 219. 223. 247. 250. 251. 250. 250. 196. 22. 174. 120.
      0. 0. 0. 0. 0. 0. 0. 45. 199. 252. 250. 250. 214. 209. 208. 222.
      188. 25. 201. 250. 0. 0. 0. 0. 0. 0. 7. 154. 249. 253. 211. 112.
      27. 16. 16. 45. 28. 25. 202. 251. 0. 0. 0. 0. 0. 6. 115. 250. 250.
      167. 67. 0. 0. 0. 0. 0. 0. 25. 201. 250. 0. 0. 0. 0. 0. 40. 220.
      250. 216. 0. 0. 0. 0. 0. 0. 0. 0. 50. 214. 250. 0. 0. 0. 0. 0. 95.
      248. 228. 72. 0. 0. 0. 0. 0. 0. 0. 0. 112. 247. 250. 0. 0. 0. 0.
      0. 101. 252. 220. 39. 0. 0. 0. 0. 0. 0. 0. 2. 128. 252. 182. 0. 0.
      0. 0. 0. 101. 250. 241. 100. 0. 0. 0. 0. 0. 0. 0. 25. 215. 250.
      41. 0. 0. 0. 0. 0. 101. 250. 250. 209. 0. 0. 0. 0. 0. 0. 0. 146.
      250. 250. 41. 0. 0. 0. 0. 0. 24. 204. 251. 251. 88. 17. 17. 2. 4.
      17. 126. 244. 241. 120. 4. 0. 0. 0. 0. 0. 3. 92. 250. 250. 245.
      208. 208. 86. 96. 208. 242. 252. 201. 37. 0. 0. 0. 0. 0. 0. 0. 27.
      191. 250. 252. 250. 250. 250. 251. 250. 223. 124. 53. 0. 0. 0. 0.
      0. 0. 0. 0. 0. 76. 188. 252. 250. 250. 246. 167. 124. 51. 7. 0. 0.
      0. 0. 0. 0. 0. 0. 0. 0. 0. 0. 0. 0. 0. 0. 0. 0. 0. 0. 0. 0. 0. 0.
      0. 0. 0. 0. 0. 0. 0. 0. 0. 0. 0. 0. 0. 0. 0. 0. 0. 0. 0. 0. 0. 0.
      0. 0. 0. 0. 0. 0. 0. 0. 0. 0. 0. 0. 0. 0. 0. 0. 0. 0. 0.</_>
    <_>
      0. 0. 0. 0. 0. 0. 0. 0. 0. 0. 0. 0. 0. 0. 0. 0. 0. 0. 0. 0. 0. 0.
      0. 0. 0. 0. 0. 0. 0. 0. 0. 0. 0. 0. 0. 0. 0. 0. 0. 0. 0. 0. 0. 0.
      0. 0. 0. 0. 0. 0. 0. 0. 0. 0. 0. 0. 0. 0. 0. 0. 0. 0. 0. 0. 0. 0.
      0. 0. 0. 0. 0. 0. 0. 0. 0. 0. 0. 0. 0. 0. 0. 0. 0. 0. 0. 0. 0. 0.
      0. 20. 46. 46. 46. 46. 46. 0. 0. 0. 0. 0. 0. 0. 0. 0. 0. 0. 2. 38.
      141. 227. 252. 252. 250. 232. 249. 179. 63. 3. 0. 0. 0. 0. 0. 0.
      0. 3. 101. 227. 229. 170. 101. 101. 96. 62. 95. 190. 234. 97. 0.
      0. 0. 0. 0. 0. 0. 114. 249. 214. 49. 0. 0. 0. 0. 0. 0. 34. 219.
      252. 0. 0. 0. 0. 0. 0. 59. 234. 178. 34. 0. 0. 0. 0. 0. 0. 0. 34.
      219. 211. 0. 0. 0. 0. 0. 13. 193. 233. 62. 0. 0. 0. 0. 0. 0. 0. 0.
      106. 224. 40. 0. 0. 0. 0. 0. 73. 238. 154. 3. 0. 0. 0. 0. 0. 0. 0.
      14. 227. 167. 0. 0. 0. 0. 0. 0. 101. 252. 86. 0. 0. 0. 0. 0. 0. 0.
      9. 141. 230. 59. 0. 0. 0. 0. 0. 0. 102. 253. 45. 0. 0. 0. 0. 0. 0.
      0. 119. 248. 121. 0. 0. 0. 0. 0. 0. 0. 95. 249. 92. 0. 0. 0. 0. 2.
      37. 143. 232. 164. 0. 0. 0. 0. 0. 0. 0. 0. 46. 225. 202. 40. 0.
      16. 81. 107. 206. 253. 124. 15. 0. 0. 0. 0. 0. 0. 0. 0. 0. 103.
      230. 242. 246. 241. 242. 222. 166. 41. 0. 0. 0. 0. 0. 0. 0. 0. 0.
      0. 0. 6. 55. 79. 103. 78. 79. 43. 9. 0. 0. 0. 0. 0. 0. 0. 0. 0. 0.
      0. 0. 0. 0. 0. 0. 0. 0. 0. 0. 0. 0. 0. 0. 0. 0. 0. 0. 0. 0. 0. 0.
      0. 0. 0. 0. 0. 0. 0. 0. 0. 0. 0. 0. 0. 0. 0. 0. 0. 0. 0. 0. 0. 0.
      0. 0. 0. 0. 0. 0. 0. 0. 0. 0. 0. 0. 0. 0.</_>
    <_>
      0. 0. 0. 0. 0. 0. 0. 0. 0. 0. 0. 0. 0. 0. 0. 0. 0. 0. 0. 0. 0. 0.
      0. 0. 0. 0. 0. 0. 0. 0. 0. 0. 0. 0. 0. 0. 0. 0. 0. 0. 0. 0. 0. 0.
      0. 0. 0. 0. 0. 0. 0. 0. 0. 0. 0. 0. 0. 0. 0. 0. 0. 0. 0. 0. 0. 0.
      0. 0. 2. 43. 135. 249. 119. 26. 0. 0. 0. 0. 0. 0. 0. 0. 0. 0. 0.
      0. 0. 0. 60. 212. 246. 253. 236. 164. 18. 0. 0. 0. 0. 0. 0. 0. 0.
      0. 0. 0. 0. 10. 198. 253. 253. 253. 253. 207. 28. 0. 0. 0. 0. 0.
      0. 0. 0. 0. 0. 0. 0. 70. 242. 253. 251. 214. 211. 209. 32. 0. 0.
      0. 0. 0. 0. 0. 0. 0. 0. 0. 4. 141. 253. 253. 208. 11. 170. 253.
      110. 0. 0. 0. 0. 0. 0. 0. 0. 0. 0. 1. 54. 253. 253. 249. 158. 7.
      170. 253. 116. 0. 0. 0. 0. 0. 0. 0. 0. 0. 0. 23. 190. 253. 249.
      151. 17. 0. 170. 253. 227. 5. 0. 0. 0. 0. 0. 0. 0. 0. 0. 31. 210.
      253. 225. 38. 0. 0. 139. 251. 253. 6. 0. 0. 0. 0. 0. 0. 0. 0. 0.
      83. 238. 232. 85. 4. 0. 0. 7. 243. 253. 6. 0. 0. 0. 0. 0. 0. 0. 0.
      0. 111. 253. 168. 0. 0. 0. 0. 0. 167. 156. 2. 0. 0. 0. 0. 0. 0. 0.
      0. 2. 137. 253. 168. 0. 0. 8. 64. 205. 204. 31. 0. 0. 0. 0. 0. 0.
      0. 0. 0. 3. 157. 253. 216. 143. 143. 158. 228. 253. 160. 12. 0. 0.
      0. 0. 0. 0. 0. 0. 0. 0. 103. 249. 253. 253. 253. 253. 253. 236.
      79. 0. 0. 0. 0. 0. 0. 0. 0. 0. 0. 0. 33. 180. 253. 253. 253. 249.
      178. 81. 2. 0. 0. 0. 0. 0. 0. 0. 0. 0. 0. 0. 0. 0. 0. 0. 0. 0. 0.
      0. 0. 0. 0. 0. 0. 0. 0. 0. 0. 0. 0. 0. 0. 0. 0. 0. 0. 0. 0. 0. 0.
      0. 0. 0. 0. 0. 0. 0. 0. 0. 0. 0. 0. 0. 0. 0. 0. 0. 0. 0. 0. 0. 0.
      0. 0. 0. 0.</_>
    <_>
      0. 0. 0. 0. 0. 0. 0. 0. 0. 0. 0. 0. 0. 0. 0. 0. 0. 0. 0. 0. 0. 0.
      0. 0. 0. 0. 0. 0. 0. 0. 0. 0. 0. 0. 0. 0. 0. 0. 0. 0. 0. 0. 0. 0.
      0. 0. 0. 0. 0. 0. 107. 201. 114. 0. 0. 0. 0. 0. 0. 0. 0. 0. 0. 0.
      0. 0. 0. 0. 0. 0. 162. 253. 253. 107. 4. 0. 0. 0. 0. 0. 0. 0. 0.
      0. 0. 0. 0. 0. 0. 0. 140. 253. 253. 227. 55. 0. 0. 0. 0. 0. 0. 0.
      0. 0. 0. 0. 0. 18. 29. 151. 206. 152. 238. 253. 160. 0. 0. 0. 0.
      0. 0. 0. 0. 0. 0. 0. 6. 159. 129. 78. 43. 7. 76. 253. 228. 27. 0.
      0. 0. 0. 0. 0. 0. 0. 0. 11. 170. 253. 209. 29. 0. 0. 1. 177. 253.
      150. 0. 0. 0. 0. 0. 0. 0. 0. 0. 28. 207. 253. 149. 3. 0. 0. 0.
      121. 248. 160. 3. 0. 0. 0. 0. 0. 0. 0. 0. 81. 243. 250. 74. 0. 0.
      0. 0. 50. 227. 208. 25. 0. 0. 0. 0. 0. 0. 0. 0. 112. 253. 200. 0.
      0. 0. 0. 0. 58. 231. 210. 26. 0. 0. 0. 0. 0. 0. 0. 0. 178. 253.
      103. 0. 0. 0. 0. 0. 145. 252. 164. 5. 0. 0. 0. 0. 0. 0. 0. 0. 221.
      253. 103. 0. 0. 0. 0. 3. 207. 253. 108. 0. 0. 0. 0. 0. 0. 0. 0. 0.
      210. 253. 116. 0. 0. 4. 48. 198. 253. 179. 18. 0. 0. 0. 0. 0. 0.
      0. 0. 0. 84. 232. 226. 143. 143. 154. 218. 253. 212. 51. 0. 0. 0.
      0. 0. 0. 0. 0. 0. 0. 8. 131. 227. 253. 253. 249. 226. 186. 58. 0.
      0. 0. 0. 0. 0. 0. 0. 0. 0. 0. 0. 4. 50. 101. 101. 93. 49. 0. 0. 0.
      0. 0. 0. 0. 0. 0. 0. 0. 0. 0. 0. 0. 0. 0. 0. 0. 0. 0. 0. 0. 0. 0.
      0. 0. 0. 0. 0. 0. 0. 0. 0. 0. 0. 0. 0. 0. 0. 0. 0. 0. 0. 0. 0. 0.
      0. 0. 0. 0. 0. 0. 0. 0. 0. 0. 0. 0. 0. 0. 0. 0. 0. 0. 0. 0. 0.</_>
    <_>
      0. 0. 0. 0. 0. 0. 0. 0. 0. 0. 0. 0. 0. 0. 0. 0. 0. 0. 0. 0. 0. 0.
      0. 0. 0. 0. 0. 0. 4. 79. 41. 0. 0. 0. 0. 0. 0. 0. 0. 0. 0. 0. 0.
      0. 0. 0. 0. 5. 163. 247. 110. 0. 0. 0. 0. 0. 0. 0. 0. 0. 0. 0. 0.
      0. 0. 0. 0. 61. 252. 180. 23. 0. 0. 0. 0. 0. 0. 0. 0. 0. 0. 0. 0.
      0. 0. 0. 0. 218. 215. 45. 0. 0. 0. 0. 0. 0. 0. 0. 0. 0. 0. 0. 0.
      0. 0. 0. 72. 254. 134. 5. 0. 0. 0. 0. 0. 0. 0. 0. 0. 0. 0. 0. 0.
      0. 0. 3. 124. 238. 28. 0. 0. 0. 0. 0. 0. 0. 0. 0. 0. 0. 0. 0. 0.
      0. 0. 27. 205. 135. 0. 0. 0. 0. 0. 0. 0. 0. 0. 0. 0. 0. 0. 0. 0.
      0. 0. 41. 232. 70. 0. 0. 3. 56. 101. 84. 32. 0. 0. 0. 0. 0. 0. 0.
      0. 0. 0. 51. 180. 0. 0. 11. 138. 230. 252. 244. 186. 51. 0. 0. 0.
      0. 0. 0. 0. 0. 0. 55. 169. 0. 0. 89. 250. 222. 146. 174. 245. 173.
      4. 0. 0. 0. 0. 0. 0. 0. 0. 41. 165. 0. 8. 173. 219. 54. 0. 15.
      159. 212. 25. 0. 0. 0. 0. 0. 0. 0. 0. 42. 204. 11. 53. 229. 110.
      0. 0. 36. 219. 166. 0. 0. 0. 0. 0. 0. 0. 0. 0. 37. 223. 217. 165.
      245. 207. 115. 148. 231. 237. 117. 0. 0. 0. 0. 0. 0. 0. 0. 0. 6.
      87. 253. 252. 252. 252. 249. 252. 238. 90. 9. 0. 0. 0. 0. 0. 0. 0.
      0. 0. 0. 0. 69. 156. 202. 202. 192. 110. 24. 2. 0. 0. 0. 0. 0. 0.
      0. 0. 0. 0. 0. 0. 0. 0. 0. 0. 0. 0. 0. 0. 0. 0. 0. 0. 0. 0. 0. 0.
      0. 0. 0. 0. 0. 0. 0. 0. 0. 0. 0. 0. 0. 0. 0. 0. 0. 0. 0. 0. 0. 0.
      0. 0. 0. 0. 0. 0. 0. 0. 0. 0. 0. 0. 0. 0. 0. 0. 0. 0. 0. 0. 0. 0.
      0. 0. 0. 0. 0. 0. 0. 0. 0. 0. 0. 0. 0.</_>
    <_>
      0. 0. 0. 0. 0. 0. 0. 0. 0. 0. 0. 0. 0. 0. 0. 0. 0. 0. 0. 0. 0. 0.
      0. 0. 0. 0. 0. 0. 0. 0. 1. 24. 142. 66. 0. 0. 0. 0. 0. 0. 0. 0. 0.
      0. 0. 0. 0. 0. 0. 0. 7. 165. 253. 121. 0. 0. 0. 0. 0. 0. 0. 0. 0.
      0. 0. 0. 0. 0. 0. 0. 93. 231. 146. 9. 0. 0. 0. 0. 0. 0. 0. 0. 0.
      0. 0. 0. 0. 0. 0. 79. 231. 177. 9. 0. 0. 0. 0. 0. 0. 0. 0. 0. 0.
      0. 0. 0. 0. 0. 28. 206. 223. 59. 0. 0. 0. 0. 0. 0. 0. 0. 0. 0. 0.
      0. 0. 0. 0. 10. 164. 216. 69. 2. 0. 0. 0. 0. 0. 0. 0. 0. 0. 0. 0.
      0. 0. 0. 0. 123. 248. 85. 0. 0. 0. 0. 0. 0. 0. 0. 0. 0. 0. 0. 0.
      0. 0. 0. 26. 212. 188. 19. 0. 0. 0. 0. 0. 0. 0. 0. 0. 0. 0. 0. 0.
      0. 0. 3. 129. 248. 145. 0. 0. 9. 126. 142. 103. 0. 0. 0. 0. 0. 0.
      0. 0. 0. 0. 0. 99. 253. 145. 0. 2. 66. 253. 253. 196. 3. 0. 0. 0.
      0. 0. 0. 0. 0. 0. 0. 100. 253. 145. 0. 81. 219. 253. 253. 252. 17.
      0. 0. 0. 0. 0. 0. 0. 0. 0. 0. 100. 253. 145. 80. 248. 253. 253.
      253. 198. 11. 0. 0. 0. 0. 0. 0. 0. 0. 0. 0. 69. 249. 188. 206.
      253. 253. 221. 123. 15. 0. 0. 0. 0. 0. 0. 0. 0. 0. 0. 0. 6. 143.
      249. 251. 251. 176. 44. 6. 0. 0. 0. 0. 0. 0. 0. 0. 0. 0. 0. 0. 0.
      10. 125. 181. 96. 9. 0. 0. 0. 0. 0. 0. 0. 0. 0. 0. 0. 0. 0. 0. 0.
      0. 0. 0. 0. 0. 0. 0. 0. 0. 0. 0. 0. 0. 0. 0. 0. 0. 0. 0. 0. 0. 0.
      0. 0. 0. 0. 0. 0. 0. 0. 0. 0. 0. 0. 0. 0. 0. 0. 0. 0. 0. 0. 0. 0.
      0. 0. 0. 0. 0. 0. 0. 0. 0. 0. 0. 0. 0. 0. 0. 0. 0. 0. 0. 0. 0. 0.
      0. 0. 0. 0. 0. 0. 0.</_>
    <_>
      0. 0. 0. 0. 0. 0. 0. 0. 0. 0. 0. 0. 0. 0. 0. 0. 0. 0. 0. 0. 0. 0.
      0. 0. 0. 0. 4. 55. 104. 31. 0. 0. 0. 0. 0. 0. 0. 0. 0. 0. 0. 0. 0.
      0. 0. 0. 104. 252. 131. 75. 0. 0. 0. 0. 0. 0. 0. 0. 0. 0. 0. 0. 0.
      0. 0. 27. 206. 220. 0. 0. 0. 0. 0. 0. 0. 0. 0. 0. 0. 0. 0. 0. 0.
      0. 0. 94. 243. 66. 0. 0. 0. 0. 0. 0. 0. 0. 0. 0. 0. 0. 0. 0. 0. 0.
      0. 172. 220. 0. 0. 0. 0. 0. 0. 0. 0. 0. 0. 0. 0. 0. 0. 0. 0. 0. 0.
      211. 181. 0. 0. 0. 0. 0. 0. 0. 0. 0. 0. 0. 0. 0. 0. 0. 0. 0. 0.
      254. 162. 0. 0. 0. 0. 0. 0. 0. 0. 0. 0. 0. 0. 0. 0. 0. 0. 0. 0.
      247. 186. 0. 0. 0. 17. 82. 98. 81. 121. 39. 0. 0. 0. 0. 0. 0. 0.
      0. 0. 185. 223. 0. 0. 0. 114. 243. 178. 77. 235. 181. 13. 0. 0. 0.
      0. 0. 0. 0. 0. 159. 244. 58. 0. 41. 239. 186. 0. 20. 156. 237. 67.
      0. 0. 0. 0. 0. 0. 0. 0. 77. 241. 221. 8. 115. 249. 141. 0. 0. 81.
      240. 73. 0. 0. 0. 0. 0. 0. 0. 0. 20. 193. 252. 130. 94. 252. 252.
      102. 78. 122. 216. 28. 0. 0. 0. 0. 0. 0. 0. 0. 0. 37. 166. 244.
      190. 162. 216. 213. 239. 253. 172. 9. 0. 0. 0. 0. 0. 0. 0. 0. 0.
      0. 16. 145. 246. 244. 240. 234. 243. 193. 28. 1. 0. 0. 0. 0. 0. 0.
      0. 0. 0. 0. 0. 6. 49. 163. 202. 202. 128. 13. 0. 0. 0. 0. 0. 0. 0.
      0. 0. 0. 0. 0. 0. 0. 0. 0. 0. 0. 0. 0. 0. 0. 0. 0. 0. 0. 0. 0. 0.
      0. 0. 0. 0. 0. 0. 0. 0. 0. 0. 0. 0. 0. 0. 0. 0. 0. 0. 0. 0. 0. 0.
      0. 0. 0. 0. 0. 0. 0. 0. 0. 0. 0. 0. 0. 0. 0. 0. 0. 0. 0. 0. 0. 0.
      0. 0. 0. 0. 0. 0. 0. 0. 0. 0. 0. 0.</_>
    <_>
      0. 0. 0. 0. 0. 0. 0. 0. 0. 0. 0. 0. 0. 0. 0. 0. 0. 0. 0. 0. 0. 0.
      0. 0. 0. 0. 0. 0. 0. 0. 0. 0. 2. 140. 42. 0. 0. 0. 0. 0. 0. 0. 0.
      0. 0. 0. 0. 0. 0. 0. 0. 26. 176. 232. 49. 0. 0. 0. 0. 0. 0. 0. 0.
      0. 0. 0. 0. 0. 0. 0. 41. 174. 253. 158. 18. 0. 0. 0. 0. 0. 0. 0.
      0. 0. 0. 0. 0. 0. 0. 0. 181. 246. 146. 23. 1. 0. 0. 0. 0. 0. 0. 0.
      0. 0. 0. 0. 0. 0. 1. 51. 239. 204. 0. 0. 0. 0. 0. 0. 0. 0. 0. 0.
      0. 0. 0. 0. 0. 0. 42. 191. 253. 204. 0. 0. 0. 0. 0. 0. 0. 0. 0. 0.
      0. 0. 0. 0. 0. 0. 102. 230. 244. 128. 0. 0. 0. 0. 0. 0. 0. 0. 0.
      0. 0. 0. 0. 0. 0. 0. 41. 212. 213. 22. 0. 0. 0. 0. 0. 0. 0. 0. 0.
      0. 0. 0. 0. 0. 0. 10. 178. 238. 137. 8. 0. 0. 0. 0. 0. 0. 0. 0. 0.
      0. 0. 0. 0. 0. 9. 115. 246. 145. 24. 177. 214. 92. 7. 0. 0. 0. 0.
      0. 0. 0. 0. 0. 0. 9. 122. 247. 166. 33. 106. 242. 253. 210. 29. 0.
      0. 0. 0. 0. 0. 0. 0. 0. 0. 66. 249. 236. 58. 173. 253. 253. 253.
      194. 21. 0. 0. 0. 0. 0. 0. 0. 0. 0. 0. 135. 253. 192. 139. 244.
      253. 245. 208. 48. 0. 0. 0. 0. 0. 0. 0. 0. 0. 0. 0. 170. 253. 251.
      250. 253. 247. 161. 28. 3. 0. 0. 0. 0. 0. 0. 0. 0. 0. 0. 0. 15.
      88. 103. 154. 183. 62. 1. 0. 0. 0. 0. 0. 0. 0. 0. 0. 0. 0. 0. 0.
      0. 0. 0. 0. 0. 0. 0. 0. 0. 0. 0. 0. 0. 0. 0. 0. 0. 0. 0. 0. 0. 0.
      0. 0. 0. 0. 0. 0. 0. 0. 0. 0. 0. 0. 0. 0. 0. 0. 0. 0. 0. 0. 0. 0.
      0. 0. 0. 0. 0. 0. 0. 0. 0. 0. 0. 0. 0. 0. 0. 0. 0. 0. 0. 0. 0. 0.
      0. 0. 0. 0. 0. 0. 0. 0. 0.</_>
    <_>
      0. 0. 0. 0. 0. 0. 0. 0. 0. 0. 0. 0. 0. 0. 0. 0. 0. 0. 0. 0. 0. 0.
      0. 0. 0. 0. 5. 124. 79. 0. 0. 0. 0. 0. 0. 0. 0. 0. 0. 0. 0. 0. 0.
      0. 0. 0. 19. 254. 130. 0. 0. 0. 0. 0. 0. 0. 0. 0. 0. 0. 0. 0. 0.
      0. 0. 3. 142. 254. 130. 0. 0. 0. 0. 0. 0. 0. 0. 0. 0. 0. 0. 0. 0.
      0. 0. 16. 185. 254. 93. 0. 0. 0. 0. 0. 0. 0. 0. 0. 0. 0. 0. 0. 0.
      0. 0. 28. 209. 254. 56. 0. 0. 0. 0. 0. 0. 0. 0. 0. 0. 0. 0. 0. 0.
      0. 0. 28. 210. 254. 56. 0. 0. 0. 0. 0. 0. 0. 0. 0. 0. 0. 0. 0. 0.
      0. 0. 52. 241. 254. 56. 0. 0. 0. 0. 19. 38. 0. 0. 0. 0. 0. 0. 0.
      0. 0. 0. 61. 254. 254. 56. 0. 21. 115. 198. 227. 219. 76. 1. 0. 0.
      0. 0. 0. 0. 0. 0. 41. 226. 254. 60. 66. 186. 248. 254. 239. 252.
      211. 40. 0. 0. 0. 0. 0. 0. 0. 0. 28. 209. 254. 197. 247. 250. 172.
      39. 62. 197. 251. 110. 0. 0. 0. 0. 0. 0. 0. 0. 23. 199. 254. 254.
      254. 230. 55. 0. 0. 82. 254. 151. 0. 0. 0. 0. 0. 0. 0. 0. 4. 160.
      254. 254. 254. 197. 22. 0. 34. 191. 226. 47. 0. 0. 0. 0. 0. 0. 0.
      0. 1. 84. 237. 254. 231. 91. 129. 166. 236. 240. 135. 6. 0. 0. 0.
      0. 0. 0. 0. 0. 0. 3. 109. 233. 253. 242. 245. 254. 223. 85. 5. 0.
      0. 0. 0. 0. 0. 0. 0. 0. 0. 0. 0. 59. 187. 198. 134. 75. 3. 0. 0.
      0. 0. 0. 0. 0. 0. 0. 0. 0. 0. 0. 0. 0. 0. 0. 0. 0. 0. 0. 0. 0. 0.
      0. 0. 0. 0. 0. 0. 0. 0. 0. 0. 0. 0. 0. 0. 0. 0. 0. 0. 0. 0. 0. 0.
      0. 0. 0. 0. 0. 0. 0. 0. 0. 0. 0. 0. 0. 0. 0. 0. 0. 0. 0. 0. 0. 0.
      0. 0. 0. 0. 0. 0. 0. 0. 0. 0. 0. 0. 0. 0. 0. 0. 0. 0.</_>
    <_>
      0. 0. 0. 0. 0. 0. 0. 0. 0. 0. 0. 0. 0. 0. 0. 0. 0. 0. 0. 0. 0. 0.
      0. 0. 0. 0. 0. 0. 0. 0. 0. 0. 0. 0. 0. 0. 0. 0. 0. 0. 0. 0. 0. 0.
      0. 0. 0. 0. 0. 0. 35. 179. 33. 0. 0. 0. 0. 0. 0. 0. 0. 0. 0. 0. 0.
      0. 0. 0. 0. 0. 162. 203. 16. 0. 0. 0. 0. 0. 0. 0. 0. 0. 0. 0. 0.
      0. 0. 0. 0. 52. 235. 122. 0. 0. 0. 0. 0. 0. 0. 0. 0. 0. 0. 0. 0.
      0. 0. 0. 6. 183. 223. 41. 0. 0. 0. 0. 0. 0. 0. 0. 0. 0. 0. 0. 0.
      0. 0. 0. 45. 226. 173. 8. 0. 0. 0. 0. 0. 0. 0. 0. 0. 0. 0. 0. 0.
      0. 0. 0. 111. 249. 76. 0. 0. 0. 0. 0. 0. 0. 0. 0. 0. 0. 0. 0. 0.
      0. 0. 2. 199. 254. 61. 8. 0. 0. 0. 0. 0. 0. 0. 0. 0. 0. 0. 0. 0.
      0. 0. 5. 228. 254. 227. 123. 2. 0. 0. 0. 0. 0. 0. 0. 0. 0. 0. 0.
      0. 0. 0. 0. 216. 162. 113. 227. 200. 17. 0. 0. 0. 0. 0. 0. 0. 0.
      0. 0. 0. 0. 0. 0. 191. 140. 3. 90. 254. 104. 1. 0. 0. 0. 0. 0. 0.
      0. 0. 0. 0. 0. 0. 0. 169. 140. 0. 19. 254. 159. 3. 0. 0. 0. 0. 0.
      0. 0. 0. 0. 0. 0. 0. 0. 160. 140. 0. 51. 254. 120. 1. 0. 0. 0. 0.
      0. 0. 0. 0. 0. 0. 0. 0. 0. 126. 188. 6. 129. 235. 25. 0. 0. 0. 0.
      0. 0. 0. 0. 0. 0. 0. 0. 0. 0. 94. 243. 228. 221. 74. 0. 0. 0. 0.
      0. 0. 0. 0. 0. 0. 0. 0. 0. 0. 0. 11. 83. 95. 48. 1. 0. 0. 0. 0. 0.
      0. 0. 0. 0. 0. 0. 0. 0. 0. 0. 0. 0. 0. 0. 0. 0. 0. 0. 0. 0. 0. 0.
      0. 0. 0. 0. 0. 0. 0. 0. 0. 0. 0. 0. 0. 0. 0. 0. 0. 0. 0. 0. 0. 0.
      0. 0. 0. 0. 0. 0. 0. 0. 0. 0. 0. 0. 0. 0. 0. 0. 0. 0.</_>
    <_>
      0. 0. 0. 0. 0. 0. 0. 0. 0. 0. 0. 0. 0. 0. 0. 0. 0. 0. 0. 0. 0. 0.
      0. 0. 0. 0. 0. 0. 0. 0. 0. 0. 0. 3. 107. 36. 0. 0. 0. 0. 0. 0. 0.
      0. 0. 0. 0. 0. 0. 0. 0. 0. 0. 80. 237. 51. 0. 0. 0. 0. 0. 0. 0. 0.
      0. 0. 0. 0. 0. 0. 0. 0. 43. 226. 153. 0. 0. 0. 0. 0. 0. 0. 0. 0.
      0. 0. 0. 0. 0. 0. 0. 51. 220. 193. 25. 0. 0. 0. 0. 0. 0. 0. 0. 0.
      0. 0. 0. 0. 0. 0. 32. 192. 228. 56. 1. 0. 0. 0. 0. 0. 0. 0. 0. 0.
      0. 0. 0. 0. 0. 18. 180. 213. 59. 0. 0. 0. 0. 0. 0. 0. 0. 0. 0. 0.
      0. 0. 0. 0. 15. 184. 241. 77. 0. 0. 0. 0. 0. 0. 0. 0. 0. 0. 0. 0.
      0. 0. 0. 0. 128. 240. 134. 6. 0. 0. 0. 0. 0. 0. 0. 0. 0. 0. 0. 0.
      0. 0. 0. 120. 234. 134. 13. 0. 0. 0. 0. 0. 0. 0. 0. 0. 0. 0. 0. 0.
      0. 0. 23. 232. 181. 19. 0. 6. 34. 38. 9. 0. 0. 0. 0. 0. 0. 0. 0.
      0. 0. 0. 109. 254. 68. 0. 22. 123. 220. 224. 70. 0. 0. 0. 0. 0. 0.
      0. 0. 0. 0. 12. 175. 245. 25. 16. 211. 254. 254. 236. 49. 0. 0. 0.
      0. 0. 0. 0. 0. 0. 0. 15. 183. 181. 35. 165. 254. 254. 243. 137.
      10. 0. 0. 0. 0. 0. 0. 0. 0. 0. 0. 5. 149. 243. 220. 249. 251. 188.
      63. 13. 0. 0. 0. 0. 0. 0. 0. 0. 0. 0. 0. 0. 18. 119. 196. 161. 84.
      8. 0. 0. 0. 0. 0. 0. 0. 0. 0. 0. 0. 0. 0. 0. 0. 0. 0. 0. 0. 0. 0.
      0. 0. 0. 0. 0. 0. 0. 0. 0. 0. 0. 0. 0. 0. 0. 0. 0. 0. 0. 0. 0. 0.
      0. 0. 0. 0. 0. 0. 0. 0. 0. 0. 0. 0. 0. 0. 0. 0. 0. 0. 0. 0. 0. 0.
      0. 0. 0. 0. 0. 0. 0. 0. 0. 0. 0. 0. 0. 0. 0. 0. 0. 0. 0. 0. 0. 0.
      0.</_>
    <_>
      0. 0. 0. 0. 0. 0. 0. 0. 0. 0. 0. 0. 0. 0. 0. 0. 0. 0. 0. 0. 0. 0.
      0. 0. 0. 0. 0. 0. 0. 0. 0. 0. 0. 0. 0. 0. 0. 0. 0. 0. 0. 0. 0. 0.
      0. 0. 0. 0. 0. 0. 0. 0. 0. 0. 0. 0. 0. 0. 0. 0. 0. 0. 0. 0. 0. 0.
      14. 73. 162. 143. 195. 209. 136. 41. 1. 0. 0. 0. 0. 0. 0. 0. 0. 0.
      0. 20. 168. 237. 243. 225. 224. 234. 253. 188. 24. 0. 0. 0. 0. 0.
      0. 0. 0. 0. 0. 65. 224. 176. 55. 2. 0. 29. 202. 237. 74. 0. 0. 0.
      0. 0. 0. 0. 0. 0. 0. 30. 68. 7. 0. 0. 0. 0. 34. 230. 184. 0. 0. 0.
      0. 0. 0. 0. 0. 0. 0. 0. 0. 0. 0. 0. 0. 0. 0. 203. 243. 31. 0. 0.
      0. 0. 0. 0. 0. 0. 0. 0. 0. 0. 0. 0. 0. 0. 0. 203. 253. 38. 0. 0.
      0. 0. 0. 0. 0. 0. 0. 0. 0. 0. 0. 0. 0. 0. 0. 203. 253. 38. 0. 0.
      0. 0. 0. 0. 0. 0. 0. 2. 48. 185. 220. 160. 167. 231. 157. 234.
      254. 58. 3. 0. 0. 0. 0. 0. 0. 0. 0. 41. 204. 253. 245. 207. 174.
      233. 253. 253. 253. 187. 25. 0. 0. 0. 0. 0. 0. 0. 0. 145. 253.
      216. 69. 2. 0. 8. 207. 253. 223. 88. 5. 0. 0. 0. 0. 0. 0. 0. 16.
      240. 223. 10. 0. 0. 4. 81. 253. 234. 63. 0. 0. 0. 0. 0. 0. 0. 0.
      0. 15. 232. 240. 137. 8. 0. 91. 226. 253. 152. 14. 0. 0. 0. 0. 0.
      0. 0. 0. 0. 0. 102. 226. 253. 228. 225. 252. 244. 195. 25. 0. 0.
      0. 0. 0. 0. 0. 0. 0. 0. 0. 8. 82. 180. 245. 253. 175. 102. 8. 0.
      0. 0. 0. 0. 0. 0. 0. 0. 0. 0. 0. 0. 0. 0. 0. 0. 0. 0. 0. 0. 0. 0.
      0. 0. 0. 0. 0. 0. 0. 0. 0. 0. 0. 0. 0. 0. 0. 0. 0. 0. 0. 0. 0. 0.
      0. 0. 0. 0. 0. 0. 0. 0. 0. 0. 0. 0. 0. 0. 0. 0. 0. 0. 0. 0. 0. 0.</_>
    <_>
      0. 0. 0. 0. 0. 0. 0. 0. 0. 0. 0. 0. 0. 0. 0. 0. 0. 0. 0. 0. 0. 0.
      0. 0. 0. 0. 0. 0. 0. 0. 0. 0. 0. 0. 0. 0. 0. 0. 0. 0. 0. 0. 0. 0.
      0. 0. 0. 0. 0. 0. 0. 0. 0. 0. 0. 0. 0. 0. 0. 0. 0. 0. 0. 0. 1. 38.
      102. 168. 223. 237. 240. 182. 85. 14. 0. 0. 0. 0. 0. 0. 0. 0. 0.
      6. 101. 220. 213. 109. 58. 42. 57. 156. 239. 160. 16. 0. 0. 0. 0.
      0. 0. 0. 0. 102. 230. 120. 15. 0. 0. 0. 0. 0. 79. 220. 134. 3. 0.
      0. 0. 0. 0. 0. 0. 157. 89. 3. 0. 0. 0. 0. 0. 0. 0. 96. 224. 54. 0.
      0. 0. 0. 0. 0. 0. 5. 2. 0. 0. 0. 0. 0. 0. 0. 0. 56. 230. 78. 0. 0.
      0. 0. 0. 0. 0. 0. 0. 0. 0. 0. 0. 0. 0. 0. 0. 55. 230. 132. 0. 0.
      0. 0. 0. 0. 0. 0. 0. 0. 0. 0. 9. 57. 56. 7. 0. 64. 234. 87. 0. 0.
      0. 0. 0. 0. 0. 0. 0. 3. 47. 160. 217. 230. 232. 230. 156. 154.
      239. 45. 0. 0. 0. 0. 0. 0. 0. 0. 0. 67. 211. 161. 92. 53. 57. 100.
      215. 253. 141. 2. 0. 0. 0. 0. 0. 0. 0. 0. 12. 213. 141. 0. 0. 0.
      0. 38. 242. 253. 79. 0. 0. 0. 0. 0. 0. 0. 0. 0. 48. 237. 70. 0. 0.
      0. 29. 184. 233. 204. 180. 0. 0. 0. 0. 0. 0. 0. 0. 0. 90. 220. 36.
      0. 0. 74. 201. 197. 54. 133. 200. 0. 0. 0. 0. 0. 0. 0. 0. 0. 76.
      235. 147. 168. 194. 233. 192. 45. 8. 188. 174. 0. 0. 0. 0. 0. 0.
      0. 0. 0. 6. 112. 181. 160. 136. 69. 21. 0. 17. 210. 85. 0. 0. 0.
      0. 0. 0. 0. 0. 0. 0. 0. 0. 0. 0. 0. 0. 0. 0. 0. 0. 0. 0. 0. 0. 0.
      0. 0. 0. 0. 0. 0. 0. 0. 0. 0. 0. 0. 0. 0. 0. 0. 0. 0. 0. 0. 0. 0.
      0. 0. 0. 0. 0. 0. 0. 0. 0. 0. 0. 0. 0. 0. 0. 0. 0. 0.</_>
    <_>
      0. 0. 0. 0. 0. 0. 0. 0. 0. 0. 0. 0. 0. 0. 0. 0. 0. 0. 0. 0. 0. 0.
      0. 0. 0. 0. 0. 0. 0. 0. 0. 0. 0. 0. 0. 0. 0. 0. 0. 0. 0. 0. 0. 0.
      0. 0. 0. 0. 0. 0. 0. 0. 0. 0. 0. 0. 0. 0. 0. 0. 0. 0. 0. 2. 29.
      84. 119. 142. 187. 159. 131. 70. 23. 0. 0. 0. 0. 0. 0. 0. 0. 0. 0.
      58. 205. 244. 244. 212. 171. 177. 245. 236. 212. 50. 0. 0. 0. 0.
      0. 0. 0. 0. 0. 84. 236. 108. 9. 0. 0. 0. 4. 93. 243. 163. 11. 0.
      0. 0. 0. 0. 0. 0. 0. 7. 66. 17. 0. 0. 0. 0. 0. 1. 174. 198. 23. 0.
      0. 0. 0. 0. 0. 0. 0. 0. 0. 0. 0. 0. 0. 0. 0. 0. 104. 210. 29. 0.
      0. 0. 0. 0. 0. 0. 0. 0. 0. 0. 0. 0. 0. 0. 0. 0. 122. 222. 35. 0.
      0. 0. 0. 0. 0. 0. 0. 0. 0. 0. 0. 0. 0. 0. 0. 0. 188. 199. 23. 0.
      0. 0. 0. 0. 0. 0. 0. 0. 0. 0. 3. 23. 28. 42. 45. 45. 209. 186. 20.
      0. 1. 2. 0. 0. 0. 0. 0. 0. 0. 4. 81. 199. 205. 231. 241. 243. 251.
      222. 151. 116. 99. 110. 0. 0. 0. 0. 0. 0. 0. 41. 230. 150. 34. 0.
      82. 215. 251. 178. 228. 254. 254. 162. 0. 0. 0. 0. 0. 0. 0. 186.
      163. 2. 0. 10. 130. 233. 67. 0. 7. 11. 11. 3. 0. 0. 0. 0. 0. 0. 0.
      209. 119. 0. 0. 103. 246. 124. 2. 0. 0. 0. 0. 0. 0. 0. 0. 0. 0. 0.
      0. 200. 165. 28. 96. 232. 188. 13. 0. 0. 0. 0. 0. 0. 0. 0. 0. 0.
      0. 0. 0. 83. 184. 151. 184. 187. 39. 0. 0. 0. 0. 0. 0. 0. 0. 0. 0.
      0. 0. 0. 0. 0. 0. 0. 0. 0. 0. 0. 0. 0. 0. 0. 0. 0. 0. 0. 0. 0. 0.
      0. 0. 0. 0. 0. 0. 0. 0. 0. 0. 0. 0. 0. 0. 0. 0. 0. 0. 0. 0. 0. 0.
      0. 0. 0. 0. 0. 0. 0. 0. 0. 0. 0. 0. 0. 0. 0.</_>
    <_>
      0. 0. 0. 0. 0. 0. 0. 0. 0. 0. 0. 0. 0. 0. 0. 0. 0. 0. 0. 0. 0. 0.
      0. 0. 0. 0. 0. 0. 0. 0. 0. 0. 0. 0. 0. 0. 0. 0. 0. 0. 0. 0. 0. 0.
      0. 0. 0. 0. 0. 0. 0. 0. 0. 0. 0. 0. 0. 0. 0. 0. 0. 0. 0. 0. 0. 0.
      0. 0. 15. 77. 110. 200. 254. 141. 12. 0. 0. 0. 0. 0. 0. 0. 0. 0.
      0. 0. 20. 123. 203. 241. 252. 253. 253. 237. 42. 0. 0. 0. 0. 0. 0.
      0. 0. 0. 0. 40. 189. 253. 239. 193. 104. 27. 52. 243. 45. 0. 0. 0.
      0. 0. 0. 0. 0. 0. 69. 193. 253. 180. 80. 16. 0. 0. 40. 243. 45. 0.
      0. 0. 0. 0. 0. 0. 0. 0. 193. 185. 43. 6. 0. 0. 0. 10. 178. 243.
      45. 0. 0. 0. 0. 0. 0. 0. 0. 0. 21. 13. 0. 0. 0. 0. 0. 36. 253.
      219. 35. 0. 0. 0. 0. 0. 0. 0. 0. 0. 0. 0. 0. 0. 0. 0. 12. 147.
      253. 126. 4. 0. 0. 0. 0. 0. 0. 0. 0. 0. 0. 0. 0. 0. 0. 2. 52. 229.
      232. 34. 0. 0. 0. 0. 0. 0. 0. 0. 0. 0. 0. 0. 0. 0. 16. 89. 197.
      238. 90. 0. 0. 0. 0. 0. 0. 0. 0. 0. 0. 0. 0. 0. 0. 78. 218. 253.
      253. 174. 0. 0. 0. 0. 0. 0. 0. 0. 0. 0. 0. 0. 0. 1. 83. 245. 253.
      253. 253. 222. 112. 13. 0. 0. 0. 0. 0. 0. 0. 0. 0. 0. 0. 28. 205.
      253. 251. 175. 149. 232. 250. 119. 24. 6. 0. 0. 0. 0. 0. 0. 0. 0.
      0. 104. 249. 244. 163. 17. 0. 48. 197. 246. 239. 78. 0. 0. 0. 0.
      0. 0. 0. 0. 0. 107. 250. 144. 19. 0. 0. 0. 7. 87. 74. 16. 0. 0. 0.
      0. 0. 0. 0. 0. 0. 0. 0. 0. 0. 0. 0. 0. 0. 0. 0. 0. 0. 0. 0. 0. 0.
      0. 0. 0. 0. 0. 0. 0. 0. 0. 0. 0. 0. 0. 0. 0. 0. 0. 0. 0. 0. 0. 0.
      0. 0. 0. 0. 0. 0. 0. 0. 0. 0. 0. 0. 0. 0. 0. 0. 0.</_>
    <_>
      0. 0. 0. 0. 0. 0. 0. 0. 0. 0. 0. 0. 0. 0. 0. 0. 0. 0. 0. 0. 0. 0.
      0. 0. 0. 0. 0. 0. 0. 0. 0. 0. 0. 0. 0. 0. 0. 0. 0. 0. 0. 0. 0. 0.
      0. 0. 0. 0. 0. 0. 0. 0. 0. 0. 0. 0. 0. 0. 0. 0. 0. 0. 0. 0. 0. 0.
      0. 0. 26. 92. 92. 6. 0. 0. 0. 0. 0. 0. 0. 0. 0. 0. 0. 0. 0. 0. 0.
      0. 197. 244. 234. 83. 0. 0. 0. 0. 0. 0. 0. 0. 0. 0. 0. 0. 0. 0. 0.
      73. 246. 254. 249. 169. 14. 0. 0. 0. 0. 0. 0. 0. 0. 0. 0. 0. 0. 0.
      0. 5. 155. 177. 120. 234. 112. 0. 0. 0. 0. 0. 0. 0. 0. 0. 0. 0. 0.
      0. 0. 0. 0. 0. 108. 254. 23. 0. 0. 0. 0. 0. 0. 0. 0. 0. 0. 0. 0.
      0. 0. 0. 1. 60. 241. 226. 11. 0. 0. 0. 0. 0. 0. 0. 0. 0. 0. 0. 0.
      0. 0. 0. 37. 205. 254. 180. 0. 0. 0. 0. 0. 0. 0. 0. 0. 0. 0. 27.
      127. 222. 222. 222. 229. 251. 229. 54. 0. 0. 0. 5. 33. 2. 0. 0. 0.
      0. 0. 55. 230. 254. 254. 254. 254. 254. 222. 38. 0. 0. 0. 57. 211.
      119. 0. 0. 0. 0. 0. 77. 242. 254. 254. 254. 248. 243. 248. 112. 0.
      7. 90. 231. 254. 171. 0. 0. 0. 0. 0. 28. 164. 228. 218. 157. 83.
      41. 190. 240. 201. 214. 250. 252. 180. 4. 0. 0. 0. 0. 0. 0. 14.
      38. 33. 8. 0. 0. 34. 171. 224. 236. 244. 145. 37. 0. 0. 0. 0. 0.
      0. 0. 0. 0. 0. 0. 0. 0. 0. 6. 15. 20. 24. 0. 0. 0. 0. 0. 0. 0. 0.
      0. 0. 0. 0. 0. 0. 0. 0. 0. 0. 0. 0. 0. 0. 0. 0. 0. 0. 0. 0. 0. 0.
      0. 0. 0. 0. 0. 0. 0. 0. 0. 0. 0. 0. 0. 0. 0. 0. 0. 0. 0. 0. 0. 0.
      0. 0. 0. 0. 0. 0. 0. 0. 0. 0. 0. 0. 0. 0. 0. 0. 0. 0. 0. 0. 0. 0.
      0. 0. 0. 0. 0. 0. 0. 0. 0. 0. 0.</_>
    <_>
      0. 0. 0. 0. 0. 0. 0. 0. 0. 0. 0. 0. 0. 0. 0. 0. 0. 0. 0. 0. 0. 0.
      0. 0. 0. 0. 0. 0. 0. 0. 0. 0. 0. 0. 0. 0. 0. 0. 0. 0. 0. 0. 0. 0.
      0. 0. 0. 0. 0. 0. 0. 0. 0. 0. 0. 0. 0. 0. 0. 0. 0. 0. 0. 0. 0. 0.
      0. 0. 0. 0. 0. 0. 0. 0. 0. 0. 0. 0. 0. 0. 0. 0. 0. 0. 0. 0. 0. 0.
      0. 0. 0. 0. 0. 0. 0. 0. 0. 0. 0. 0. 0. 0. 0. 0. 0. 0. 29. 135.
      174. 66. 4. 0. 0. 0. 0. 0. 0. 0. 0. 0. 0. 0. 0. 0. 0. 0. 103. 157.
      91. 183. 100. 0. 0. 0. 0. 0. 0. 0. 0. 0. 0. 0. 0. 0. 0. 0. 20. 30.
      0. 29. 208. 24. 0. 0. 0. 0. 0. 0. 0. 0. 0. 0. 0. 0. 0. 0. 0. 0. 0.
      0. 130. 74. 0. 0. 0. 0. 0. 0. 0. 0. 0. 0. 0. 0. 0. 0. 0. 0. 0. 0.
      68. 89. 0. 0. 0. 0. 0. 0. 0. 0. 0. 0. 0. 0. 0. 10. 47. 31. 3. 0.
      121. 84. 0. 0. 0. 0. 0. 0. 0. 0. 0. 0. 0. 0. 0. 41. 212. 171. 151.
      117. 195. 61. 10. 8. 1. 5. 5. 0. 0. 0. 0. 0. 0. 0. 0. 12. 154.
      126. 177. 250. 220. 245. 254. 243. 199. 223. 223. 193. 186. 110.
      0. 0. 0. 0. 0. 0. 24. 95. 112. 68. 3. 18. 23. 23. 44. 46. 23. 23.
      23. 23. 0. 0. 0. 0. 0. 0. 0. 0. 0. 0. 0. 0. 0. 0. 0. 0. 0. 0. 0.
      0. 0. 0. 0. 0. 0. 0. 0. 0. 0. 0. 0. 0. 0. 0. 0. 0. 0. 0. 0. 0. 0.
      0. 0. 0. 0. 0. 0. 0. 0. 0. 0. 0. 0. 0. 0. 0. 0. 0. 0. 0. 0. 0. 0.
      0. 0. 0. 0. 0. 0. 0. 0. 0. 0. 0. 0. 0. 0. 0. 0. 0. 0. 0. 0. 0. 0.
      0. 0. 0. 0. 0. 0. 0. 0. 0. 0. 0. 0. 0. 0. 0. 0. 0. 0. 0. 0. 0. 0.
      0. 0. 0. 0. 0. 0. 0. 0. 0. 0. 0. 0. 0.</_>
    <_>
      0. 0. 0. 0. 0. 0. 0. 0. 0. 0. 0. 0. 0. 0. 0. 0. 0. 0. 0. 0. 0. 0.
      0. 0. 0. 0. 0. 0. 0. 0. 0. 0. 0. 0. 0. 0. 0. 0. 0. 0. 0. 0. 0. 0.
      0. 0. 0. 0. 0. 0. 0. 0. 0. 0. 0. 0. 0. 0. 0. 0. 0. 0. 0. 0. 0. 0.
      7. 13. 12. 2. 0. 0. 0. 0. 0. 0. 0. 0. 0. 0. 0. 0. 0. 0. 0. 10.
      137. 207. 203. 120. 10. 0. 0. 0. 0. 0. 0. 0. 0. 0. 0. 0. 0. 0. 0.
      22. 193. 251. 252. 251. 214. 71. 0. 0. 0. 0. 0. 0. 0. 0. 0. 0. 0.
      0. 0. 4. 122. 252. 253. 252. 252. 217. 38. 0. 0. 0. 0. 0. 0. 0. 0.
      0. 0. 0. 0. 0. 10. 62. 161. 233. 251. 252. 62. 0. 0. 0. 0. 0. 0.
      0. 0. 0. 0. 0. 0. 0. 0. 0. 1. 112. 251. 252. 62. 0. 0. 0. 0. 0. 0.
      0. 0. 0. 0. 0. 0. 0. 0. 0. 11. 191. 251. 252. 62. 0. 0. 0. 0. 0.
      0. 0. 0. 0. 0. 0. 0. 2. 36. 127. 206. 252. 252. 211. 31. 4. 6. 40.
      115. 49. 11. 0. 0. 0. 0. 0. 0. 88. 200. 251. 252. 251. 251. 156.
      76. 137. 163. 209. 242. 229. 112. 0. 0. 0. 0. 0. 99. 245. 251.
      251. 252. 251. 251. 252. 251. 251. 251. 253. 251. 156. 19. 0. 0.
      0. 0. 0. 152. 252. 252. 252. 253. 252. 252. 253. 223. 160. 70. 57.
      56. 7. 0. 0. 0. 0. 0. 0. 31. 209. 247. 226. 227. 175. 100. 101.
      49. 9. 0. 0. 0. 0. 0. 0. 0. 0. 0. 0. 0. 30. 85. 0. 0. 0. 0. 0. 0.
      0. 0. 0. 0. 0. 0. 0. 0. 0. 0. 0. 0. 0. 0. 0. 0. 0. 0. 0. 0. 0. 0.
      0. 0. 0. 0. 0. 0. 0. 0. 0. 0. 0. 0. 0. 0. 0. 0. 0. 0. 0. 0. 0. 0.
      0. 0. 0. 0. 0. 0. 0. 0. 0. 0. 0. 0. 0. 0. 0. 0. 0. 0. 0. 0. 0. 0.
      0. 0. 0. 0. 0. 0. 0. 0. 0. 0. 0. 0. 0. 0. 0. 0. 0. 0. 0. 0. 0.</_>
    <_>
      0. 0. 0. 0. 0. 0. 0. 0. 0. 0. 0. 0. 0. 0. 0. 0. 0. 0. 0. 0. 0. 0.
      0. 0. 0. 0. 0. 0. 0. 0. 0. 0. 0. 0. 0. 0. 0. 0. 0. 0. 0. 0. 0. 0.
      0. 0. 0. 0. 50. 129. 249. 254. 159. 0. 0. 0. 0. 0. 0. 0. 0. 0. 0.
      0. 0. 19. 123. 188. 226. 252. 247. 252. 216. 0. 0. 0. 0. 0. 0. 0.
      0. 0. 0. 0. 26. 191. 243. 241. 213. 144. 116. 252. 216. 0. 0. 0.
      0. 0. 0. 0. 0. 0. 0. 0. 76. 205. 120. 41. 0. 0. 51. 252. 209. 0.
      0. 0. 0. 0. 0. 0. 0. 0. 0. 0. 2. 21. 3. 0. 0. 0. 98. 252. 130. 0.
      0. 0. 0. 0. 0. 0. 0. 0. 0. 0. 0. 0. 0. 0. 0. 0. 230. 212. 14. 0.
      0. 0. 0. 0. 0. 0. 0. 0. 0. 0. 0. 0. 0. 0. 0. 82. 251. 139. 0. 0.
      0. 0. 0. 0. 0. 0. 0. 0. 0. 0. 0. 0. 0. 0. 18. 181. 240. 75. 0. 0.
      0. 0. 0. 0. 0. 0. 0. 0. 0. 0. 0. 0. 0. 0. 97. 246. 172. 0. 0. 0.
      0. 0. 0. 0. 0. 0. 0. 0. 0. 0. 0. 0. 0. 29. 201. 241. 41. 0. 0. 0.
      0. 0. 0. 0. 0. 0. 0. 0. 0. 0. 0. 0. 0. 159. 252. 142. 0. 0. 0. 0.
      0. 0. 0. 0. 0. 0. 0. 0. 0. 0. 0. 0. 72. 244. 215. 62. 44. 82. 91.
      145. 145. 130. 31. 0. 0. 0. 0. 0. 0. 0. 0. 37. 194. 252. 242. 220.
      223. 243. 244. 252. 252. 242. 90. 0. 0. 0. 0. 0. 0. 0. 0. 160.
      252. 252. 248. 239. 229. 220. 204. 178. 119. 96. 10. 0. 0. 0. 0.
      0. 0. 0. 0. 52. 101. 101. 93. 75. 54. 36. 4. 3. 0. 0. 0. 0. 0. 0.
      0. 0. 0. 0. 0. 0. 0. 0. 0. 0. 0. 0. 0. 0. 0. 0. 0. 0. 0. 0. 0. 0.
      0. 0. 0. 0. 0. 0. 0. 0. 0. 0. 0. 0. 0. 0. 0. 0. 0. 0. 0. 0. 0. 0.
      0. 0. 0. 0. 0. 0. 0. 0. 0. 0. 0. 0. 0. 0. 0. 0.</_>
    <_>
      0. 0. 0. 0. 0. 0. 0. 0. 0. 0. 0. 0. 0. 0. 0. 0. 0. 0. 0. 0. 0. 0.
      0. 0. 0. 0. 0. 0. 0. 0. 0. 0. 0. 0. 0. 0. 0. 0. 0. 0. 0. 0. 0. 0.
      0. 0. 0. 0. 0. 0. 0. 0. 0. 0. 0. 0. 0. 0. 0. 0. 0. 0. 0. 0. 0. 0.
      0. 0. 37. 123. 243. 177. 12. 0. 0. 0. 0. 0. 0. 0. 0. 0. 0. 0. 0.
      0. 1. 119. 207. 248. 203. 250. 103. 0. 0. 0. 0. 0. 0. 0. 0. 0. 0.
      0. 0. 0. 45. 254. 248. 93. 54. 239. 122. 0. 0. 0. 0. 0. 0. 0. 0.
      0. 0. 0. 0. 0. 23. 140. 144. 18. 130. 252. 75. 0. 0. 0. 0. 0. 0.
      0. 0. 0. 0. 0. 0. 0. 0. 0. 0. 33. 245. 196. 0. 0. 0. 0. 0. 0. 0.
      0. 0. 0. 0. 0. 0. 0. 0. 0. 2. 160. 246. 113. 0. 0. 0. 0. 0. 0. 0.
      0. 0. 0. 0. 0. 0. 0. 0. 0. 63. 231. 209. 26. 0. 0. 0. 0. 0. 0. 0.
      0. 0. 0. 0. 0. 0. 0. 0. 5. 166. 247. 72. 0. 0. 0. 0. 0. 0. 0. 0.
      0. 0. 0. 0. 0. 0. 0. 0. 64. 246. 132. 6. 0. 0. 0. 0. 0. 0. 0. 0.
      0. 0. 0. 0. 0. 0. 0. 47. 248. 241. 49. 0. 0. 0. 0. 0. 0. 0. 0. 0.
      0. 0. 0. 0. 0. 0. 23. 182. 254. 254. 235. 170. 88. 8. 0. 0. 0. 0.
      0. 0. 0. 0. 0. 0. 0. 0. 73. 248. 176. 121. 188. 254. 242. 176. 34.
      0. 0. 0. 0. 0. 0. 0. 0. 0. 0. 0. 9. 51. 1. 0. 1. 67. 208. 253.
      200. 227. 239. 186. 0. 0. 0. 0. 0. 0. 0. 0. 0. 0. 0. 0. 0. 1. 48.
      165. 210. 155. 92. 33. 0. 0. 0. 0. 0. 0. 0. 0. 0. 0. 0. 0. 0. 0.
      0. 0. 0. 0. 0. 0. 0. 0. 0. 0. 0. 0. 0. 0. 0. 0. 0. 0. 0. 0. 0. 0.
      0. 0. 0. 0. 0. 0. 0. 0. 0. 0. 0. 0. 0. 0. 0. 0. 0. 0. 0. 0. 0. 0.
      0. 0. 0. 0. 0.</_>
    <_>
      0. 0. 0. 0. 0. 0. 0. 0. 0. 0. 0. 0. 0. 0. 0. 0. 0. 0. 0. 0. 0. 0.
      0. 0. 0. 0. 0. 0. 0. 0. 0. 0. 0. 0. 0. 0. 0. 0. 0. 0. 0. 0. 0. 0.
      0. 0. 0. 0. 0. 0. 0. 0. 0. 0. 0. 0. 0. 0. 0. 0. 0. 0. 0. 0. 0. 0.
      0. 0. 0. 0. 0. 0. 0. 0. 0. 0. 0. 0. 0. 0. 0. 0. 0. 0. 0. 33. 168.
      171. 112. 56. 0. 0. 0. 0. 0. 0. 0. 0. 0. 0. 0. 0. 0. 0. 0. 43.
      238. 253. 253. 248. 198. 69. 0. 0. 0. 0. 0. 0. 0. 0. 0. 0. 0. 0.
      0. 10. 104. 174. 229. 229. 235. 172. 0. 0. 0. 0. 0. 0. 0. 0. 0. 0.
      0. 0. 0. 0. 0. 0. 0. 0. 72. 253. 86. 0. 0. 0. 0. 0. 0. 0. 0. 0. 0.
      0. 0. 0. 0. 0. 0. 0. 50. 230. 186. 3. 0. 0. 0. 0. 0. 0. 0. 0. 0.
      0. 0. 0. 0. 82. 97. 97. 183. 250. 209. 5. 0. 0. 0. 0. 0. 0. 0. 0.
      0. 0. 0. 6. 112. 251. 253. 253. 253. 253. 199. 20. 2. 0. 0. 0. 14.
      4. 0. 0. 0. 0. 0. 145. 235. 253. 253. 253. 252. 238. 254. 182.
      136. 128. 128. 128. 137. 20. 0. 0. 0. 0. 0. 255. 253. 253. 253.
      245. 92. 37. 117. 251. 253. 253. 247. 222. 64. 0. 0. 0. 0. 0. 0.
      215. 237. 220. 165. 74. 0. 0. 0. 39. 40. 95. 44. 21. 0. 0. 0. 0.
      0. 0. 0. 31. 43. 34. 11. 1. 0. 0. 0. 0. 0. 0. 0. 0. 0. 0. 0. 0. 0.
      0. 0. 0. 0. 0. 0. 0. 0. 0. 0. 0. 0. 0. 0. 0. 0. 0. 0. 0. 0. 0. 0.
      0. 0. 0. 0. 0. 0. 0. 0. 0. 0. 0. 0. 0. 0. 0. 0. 0. 0. 0. 0. 0. 0.
      0. 0. 0. 0. 0. 0. 0. 0. 0. 0. 0. 0. 0. 0. 0. 0. 0. 0. 0. 0. 0. 0.
      0. 0. 0. 0. 0. 0. 0. 0. 0. 0. 0. 0. 0. 0. 0. 0. 0. 0. 0. 0. 0. 0.
      0. 0. 0. 0. 0. 0. 0. 0. 0.</_>
    <_>
      0. 0. 0. 0. 0. 0. 0. 0. 0. 0. 0. 0. 0. 0. 0. 0. 0. 0. 0. 0. 0. 0.
      0. 0. 0. 0. 0. 0. 0. 0. 0. 0. 0. 0. 0. 0. 0. 0. 0. 0. 0. 0. 0. 0.
      0. 0. 0. 0. 0. 0. 0. 0. 0. 0. 0. 0. 0. 0. 0. 0. 0. 0. 0. 0. 0. 0.
      0. 0. 0. 0. 0. 0. 0. 0. 0. 0. 0. 0. 0. 0. 0. 0. 0. 0. 0. 0. 0. 0.
      0. 0. 0. 0. 0. 0. 0. 0. 0. 0. 0. 0. 0. 0. 0. 0. 0. 0. 0. 17. 25.
      33. 34. 34. 17. 10. 0. 0. 0. 0. 0. 0. 0. 0. 0. 21. 65. 112. 153.
      187. 152. 168. 143. 170. 136. 174. 139. 55. 0. 0. 0. 0. 0. 0. 0.
      238. 255. 153. 86. 0. 0. 0. 0. 0. 0. 0. 69. 198. 97. 0. 0. 0. 0.
      0. 0. 174. 27. 0. 0. 0. 0. 0. 0. 0. 0. 0. 0. 29. 181. 0. 0. 0. 0.
      0. 0. 21. 3. 0. 0. 0. 0. 0. 0. 0. 0. 0. 0. 41. 180. 0. 0. 0. 0. 0.
      0. 0. 0. 0. 0. 0. 0. 14. 18. 26. 28. 34. 34. 175. 95. 0. 0. 0. 0.
      0. 0. 0. 0. 10. 52. 102. 143. 181. 186. 167. 175. 221. 180. 199.
      137. 0. 0. 0. 0. 0. 0. 0. 69. 255. 204. 86. 74. 11. 0. 52. 198.
      187. 17. 0. 0. 0. 0. 0. 0. 0. 0. 0. 204. 129. 14. 0. 14. 70. 130.
      169. 85. 10. 0. 0. 0. 0. 0. 0. 0. 0. 0. 0. 77. 186. 136. 158. 192.
      122. 46. 15. 0. 0. 0. 0. 0. 0. 0. 0. 0. 0. 0. 0. 0. 9. 60. 69. 14.
      0. 0. 0. 0. 0. 0. 0. 0. 0. 0. 0. 0. 0. 0. 0. 0. 0. 0. 0. 0. 0. 0.
      0. 0. 0. 0. 0. 0. 0. 0. 0. 0. 0. 0. 0. 0. 0. 0. 0. 0. 0. 0. 0. 0.
      0. 0. 0. 0. 0. 0. 0. 0. 0. 0. 0. 0. 0. 0. 0. 0. 0. 0. 0. 0. 0. 0.
      0. 0. 0. 0. 0. 0. 0. 0. 0. 0. 0. 0. 0. 0. 0. 0. 0. 0. 0. 0. 0. 0.
      0. 0. 0.</_>
    <_>
      0. 0. 0. 0. 0. 0. 0. 0. 0. 0. 0. 0. 0. 0. 0. 0. 0. 0. 0. 0. 0. 0.
      0. 0. 0. 0. 0. 0. 0. 0. 0. 0. 0. 0. 0. 0. 0. 0. 0. 0. 0. 0. 0. 0.
      0. 0. 0. 22. 138. 237. 183. 73. 0. 0. 0. 0. 0. 0. 0. 0. 0. 0. 0.
      0. 0. 2. 77. 241. 234. 207. 219. 242. 163. 18. 0. 0. 0. 0. 0. 0.
      0. 0. 0. 0. 0. 14. 173. 212. 44. 27. 40. 148. 251. 108. 0. 0. 0.
      0. 0. 0. 0. 0. 0. 0. 0. 27. 195. 73. 0. 0. 0. 46. 254. 146. 0. 0.
      0. 0. 0. 0. 0. 0. 0. 0. 0. 5. 48. 8. 0. 0. 0. 54. 254. 126. 0. 0.
      0. 0. 0. 0. 0. 0. 0. 0. 0. 0. 0. 0. 0. 0. 1. 128. 254. 41. 0. 0.
      0. 0. 0. 0. 0. 0. 0. 0. 0. 0. 0. 0. 0. 0. 12. 176. 228. 13. 0. 0.
      0. 0. 0. 0. 0. 0. 0. 0. 0. 0. 0. 0. 0. 0. 40. 229. 144. 0. 0. 0.
      0. 0. 0. 0. 0. 0. 0. 0. 0. 0. 0. 0. 0. 2. 161. 211. 5. 0. 0. 0. 0.
      0. 0. 0. 0. 0. 0. 0. 0. 0. 0. 0. 8. 97. 237. 107. 0. 0. 0. 0. 0.
      0. 0. 0. 0. 0. 0. 0. 0. 0. 43. 168. 252. 254. 253. 183. 60. 33. 0.
      0. 0. 0. 0. 0. 0. 0. 0. 0. 20. 155. 246. 254. 254. 231. 163. 206.
      250. 239. 143. 27. 10. 0. 0. 0. 0. 0. 0. 0. 106. 251. 254. 254.
      233. 88. 9. 27. 63. 162. 252. 211. 181. 0. 0. 0. 0. 0. 0. 0. 91.
      240. 247. 202. 36. 1. 0. 0. 0. 19. 121. 208. 154. 0. 0. 0. 0. 0.
      0. 0. 10. 74. 88. 16. 0. 0. 0. 0. 0. 0. 0. 20. 17. 0. 0. 0. 0. 0.
      0. 0. 0. 0. 0. 0. 0. 0. 0. 0. 0. 0. 0. 0. 0. 0. 0. 0. 0. 0. 0. 0.
      0. 0. 0. 0. 0. 0. 0. 0. 0. 0. 0. 0. 0. 0. 0. 0. 0. 0. 0. 0. 0. 0.
      0. 0. 0. 0. 0. 0. 0. 0. 0. 0. 0. 0. 0. 0.</_>
    <_>
      0. 0. 0. 0. 0. 0. 0. 0. 0. 0. 0. 0. 0. 0. 0. 0. 0. 0. 0. 0. 0. 0.
      0. 0. 0. 0. 0. 0. 0. 0. 0. 0. 0. 0. 0. 0. 0. 0. 0. 0. 0. 0. 0. 0.
      0. 0. 0. 0. 0. 24. 140. 228. 134. 7. 0. 0. 0. 0. 0. 0. 0. 0. 0. 0.
      0. 0. 0. 0. 50. 198. 178. 133. 233. 152. 13. 0. 0. 0. 0. 0. 0. 0.
      0. 0. 0. 0. 0. 0. 144. 80. 15. 3. 62. 216. 32. 0. 0. 0. 0. 0. 0.
      0. 0. 0. 0. 0. 0. 0. 71. 4. 0. 0. 23. 218. 33. 0. 0. 0. 0. 0. 0.
      0. 0. 0. 0. 0. 0. 0. 6. 0. 0. 0. 23. 218. 33. 0. 0. 0. 0. 0. 0. 0.
      0. 0. 0. 0. 0. 0. 0. 0. 0. 0. 23. 218. 33. 0. 0. 0. 0. 0. 0. 0. 0.
      0. 0. 55. 88. 67. 22. 0. 0. 0. 135. 202. 25. 0. 0. 0. 0. 0. 0. 0.
      0. 3. 109. 226. 226. 223. 204. 97. 10. 0. 231. 144. 7. 0. 0. 0. 0.
      0. 0. 0. 0. 45. 211. 55. 11. 30. 113. 225. 179. 65. 246. 48. 0. 0.
      0. 0. 0. 0. 0. 0. 0. 71. 168. 1. 0. 0. 2. 62. 200. 242. 178. 13.
      0. 0. 0. 0. 0. 0. 0. 0. 0. 42. 223. 86. 0. 0. 0. 0. 185. 253. 246.
      35. 0. 0. 0. 0. 0. 0. 0. 0. 0. 4. 105. 199. 101. 93. 124. 182.
      117. 68. 224. 192. 48. 0. 0. 0. 0. 0. 0. 0. 0. 0. 8. 73. 202. 213.
      190. 70. 2. 0. 44. 214. 216. 24. 0. 0. 0. 0. 0. 0. 0. 0. 0. 0. 0.
      0. 0. 0. 0. 0. 0. 68. 224. 215. 46. 0. 0. 0. 0. 0. 0. 0. 0. 0. 0.
      0. 0. 0. 0. 0. 0. 8. 67. 79. 8. 0. 0. 0. 0. 0. 0. 0. 0. 0. 0. 0.
      0. 0. 0. 0. 0. 0. 0. 0. 0. 0. 0. 0. 0. 0. 0. 0. 0. 0. 0. 0. 0. 0.
      0. 0. 0. 0. 0. 0. 0. 0. 0. 0. 0. 0. 0. 0. 0. 0. 0. 0. 0. 0. 0. 0.
      0. 0. 0. 0. 0. 0. 0. 0.</_>
    <_>
      0. 0. 0. 0. 0. 0. 0. 0. 0. 0. 0. 0. 0. 0. 0. 0. 0. 0. 0. 0. 0. 0.
      0. 0. 0. 0. 0. 0. 0. 0. 0. 0. 0. 0. 0. 0. 0. 0. 0. 0. 0. 0. 0. 0.
      0. 0. 0. 0. 0. 0. 0. 0. 0. 0. 0. 0. 0. 0. 0. 0. 0. 0. 0. 0. 0. 19.
      91. 159. 220. 211. 212. 149. 112. 27. 1. 0. 0. 0. 0. 0. 0. 0. 0.
      0. 0. 170. 201. 104. 69. 49. 63. 69. 154. 193. 35. 0. 0. 0. 0. 0.
      0. 0. 0. 0. 0. 54. 14. 0. 0. 0. 0. 0. 1. 134. 169. 0. 0. 0. 0. 0.
      0. 0. 0. 0. 0. 0. 0. 0. 0. 0. 0. 0. 0. 40. 191. 0. 0. 0. 0. 0. 0.
      0. 0. 0. 0. 0. 0. 0. 0. 0. 0. 0. 0. 75. 208. 0. 0. 0. 0. 0. 0. 0.
      0. 0. 0. 0. 0. 0. 0. 0. 0. 0. 51. 176. 103. 0. 0. 0. 0. 0. 0. 0.
      0. 0. 0. 0. 0. 0. 0. 0. 13. 127. 221. 103. 7. 0. 0. 0. 0. 0. 0. 0.
      0. 0. 0. 0. 0. 0. 3. 37. 158. 195. 66. 0. 0. 0. 0. 0. 0. 0. 0. 0.
      0. 0. 0. 0. 0. 9. 104. 180. 84. 28. 0. 0. 0. 0. 0. 0. 0. 0. 0. 0.
      0. 0. 0. 0. 0. 91. 138. 6. 0. 0. 0. 0. 0. 0. 0. 0. 0. 0. 0. 0. 0.
      0. 0. 0. 78. 221. 41. 0. 0. 0. 6. 9. 2. 0. 0. 0. 0. 0. 0. 0. 0. 0.
      0. 4. 143. 175. 1. 0. 79. 129. 177. 186. 155. 16. 0. 0. 0. 0. 0.
      0. 0. 0. 0. 25. 203. 182. 106. 163. 241. 221. 209. 211. 236. 180.
      6. 0. 0. 0. 0. 0. 0. 0. 0. 26. 205. 230. 185. 117. 82. 37. 11. 16.
      82. 115. 11. 0. 0. 0. 0. 0. 0. 0. 0. 0. 0. 0. 0. 0. 0. 0. 0. 0. 0.
      0. 0. 0. 0. 0. 0. 0. 0. 0. 0. 0. 0. 0. 0. 0. 0. 0. 0. 0. 0. 0. 0.
      0. 0. 0. 0. 0. 0. 0. 0. 0. 0. 0. 0. 0. 0. 0. 0. 0. 0. 0. 0. 0. 0.
      0.</_>
    <_>
      0. 0. 0. 0. 0. 0. 0. 0. 0. 0. 0. 0. 0. 0. 0. 0. 0. 0. 0. 0. 0. 0.
      0. 0. 0. 0. 0. 0. 0. 0. 0. 0. 0. 0. 0. 0. 0. 0. 0. 0. 0. 0. 0. 0.
      0. 0. 0. 0. 0. 0. 0. 0. 0. 0. 0. 0. 0. 0. 0. 0. 0. 0. 0. 0. 0. 0.
      0. 0. 105. 237. 211. 75. 0. 0. 0. 0. 0. 0. 0. 0. 0. 0. 0. 0. 0. 0.
      0. 0. 172. 254. 254. 168. 22. 0. 0. 0. 0. 0. 0. 0. 0. 0. 0. 0. 0.
      0. 0. 5. 186. 180. 82. 239. 111. 9. 0. 0. 0. 0. 0. 0. 0. 0. 0. 0.
      0. 0. 0. 31. 246. 94. 41. 235. 233. 57. 0. 0. 0. 0. 0. 0. 0. 0. 0.
      0. 0. 0. 0. 35. 254. 56. 41. 235. 254. 66. 0. 0. 0. 0. 0. 0. 0. 0.
      0. 0. 0. 0. 0. 23. 220. 223. 182. 248. 244. 42. 0. 0. 0. 0. 0. 0.
      0. 0. 0. 0. 0. 0. 0. 1. 98. 199. 208. 250. 228. 1. 0. 0. 0. 0. 0.
      0. 0. 0. 0. 0. 0. 0. 0. 0. 2. 27. 88. 242. 227. 0. 0. 0. 0. 0. 0.
      0. 0. 0. 0. 0. 0. 0. 0. 1. 100. 207. 236. 254. 228. 1. 0. 0. 0. 0.
      0. 0. 0. 0. 0. 0. 0. 0. 0. 103. 254. 211. 190. 254. 254. 66. 0. 0.
      0. 0. 0. 0. 0. 0. 0. 0. 0. 0. 0. 173. 236. 48. 162. 250. 243. 214.
      65. 4. 0. 0. 0. 0. 0. 0. 0. 0. 0. 0. 7. 189. 203. 82. 244. 213.
      86. 241. 228. 93. 0. 0. 0. 0. 0. 0. 0. 0. 0. 0. 23. 227. 242. 221.
      246. 113. 0. 127. 219. 193. 16. 0. 0. 0. 0. 0. 0. 0. 0. 0. 0. 117.
      234. 225. 148. 21. 0. 0. 47. 79. 8. 0. 0. 0. 0. 0. 0. 0. 0. 0. 0.
      0. 0. 0. 0. 0. 0. 0. 0. 0. 0. 0. 0. 0. 0. 0. 0. 0. 0. 0. 0. 0. 0.
      0. 0. 0. 0. 0. 0. 0. 0. 0. 0. 0. 0. 0. 0. 0. 0. 0. 0. 0. 0. 0. 0.
      0. 0. 0. 0. 0. 0. 0. 0. 0.</_>
    <_>
      0. 0. 0. 0. 0. 0. 0. 0. 0. 0. 0. 0. 0. 0. 0. 0. 0. 0. 0. 0. 0. 0.
      0. 0. 0. 0. 0. 0. 0. 0. 0. 0. 0. 0. 0. 0. 0. 0. 0. 0. 0. 0. 0. 0.
      0. 0. 0. 0. 0. 0. 123. 215. 253. 197. 32. 0. 0. 0. 0. 0. 0. 0. 0.
      0. 0. 0. 0. 0. 0. 0. 253. 252. 252. 235. 234. 156. 44. 0. 0. 0. 0.
      0. 0. 0. 0. 0. 0. 0. 0. 0. 180. 214. 117. 60. 130. 250. 161. 0. 0.
      0. 0. 0. 0. 0. 0. 0. 0. 0. 0. 0. 0. 0. 0. 0. 24. 223. 252. 0. 0.
      0. 0. 0. 0. 0. 0. 0. 0. 0. 0. 0. 0. 0. 0. 0. 36. 232. 252. 0. 0.
      0. 0. 0. 0. 0. 0. 0. 0. 0. 0. 0. 0. 0. 0. 0. 68. 252. 233. 0. 0.
      0. 0. 0. 0. 0. 0. 0. 0. 0. 0. 0. 0. 0. 0. 47. 191. 243. 118. 0. 0.
      0. 0. 0. 0. 0. 17. 24. 0. 0. 0. 0. 0. 0. 61. 193. 253. 199. 27. 0.
      0. 0. 0. 0. 0. 65. 217. 236. 231. 193. 76. 27. 13. 42. 207. 248.
      212. 33. 0. 0. 0. 0. 0. 0. 0. 202. 250. 215. 151. 179. 238. 205.
      178. 218. 252. 177. 57. 0. 0. 0. 0. 0. 0. 0. 0. 253. 252. 67. 0.
      48. 237. 252. 253. 252. 157. 30. 0. 0. 0. 0. 0. 0. 0. 0. 0. 254.
      223. 90. 90. 188. 253. 253. 220. 219. 219. 178. 90. 90. 71. 0. 0.
      0. 0. 0. 0. 253. 251. 247. 247. 251. 183. 102. 34. 33. 33. 77. 89.
      89. 79. 0. 0. 0. 0. 0. 0. 113. 215. 224. 197. 79. 9. 0. 0. 0. 0.
      0. 0. 0. 0. 0. 0. 0. 0. 0. 0. 6. 39. 45. 18. 0. 0. 0. 0. 0. 0. 0.
      0. 0. 0. 0. 0. 0. 0. 0. 0. 0. 0. 0. 0. 0. 0. 0. 0. 0. 0. 0. 0. 0.
      0. 0. 0. 0. 0. 0. 0. 0. 0. 0. 0. 0. 0. 0. 0. 0. 0. 0. 0. 0. 0. 0.
      0. 0. 0. 0. 0. 0. 0. 0. 0. 0. 0. 0. 0. 0. 0. 0. 0. 0. 0. 0. 0. 0.</_>
    <_>
      0. 0. 0. 0. 0. 0. 0. 0. 0. 0. 0. 0. 0. 0. 0. 0. 0. 0. 0. 0. 0. 0.
      0. 0. 0. 0. 0. 0. 0. 0. 0. 0. 0. 0. 0. 0. 0. 0. 0. 0. 0. 0. 0. 0.
      0. 0. 0. 0. 0. 0. 0. 0. 0. 0. 0. 0. 0. 0. 0. 0. 0. 0. 0. 17. 83.
      96. 96. 96. 82. 45. 0. 0. 0. 0. 0. 0. 0. 0. 0. 0. 0. 0. 0. 89.
      243. 250. 250. 250. 243. 223. 68. 0. 0. 0. 0. 0. 0. 0. 0. 0. 0. 0.
      0. 85. 232. 244. 243. 239. 245. 252. 204. 33. 0. 0. 0. 0. 0. 0. 0.
      0. 0. 0. 0. 8. 61. 100. 95. 74. 107. 178. 250. 147. 4. 0. 0. 0. 0.
      0. 0. 0. 0. 0. 0. 0. 0. 0. 0. 0. 0. 4. 187. 252. 118. 0. 0. 0. 0.
      0. 0. 0. 0. 0. 0. 0. 0. 0. 0. 0. 0. 35. 231. 252. 128. 0. 0. 0. 0.
      0. 0. 0. 0. 0. 0. 0. 0. 0. 0. 0. 9. 181. 252. 252. 37. 0. 0. 0. 0.
      0. 0. 0. 0. 0. 0. 0. 0. 0. 0. 0. 69. 226. 253. 174. 0. 0. 0. 0. 0.
      0. 0. 0. 0. 0. 0. 0. 0. 0. 9. 73. 227. 251. 209. 69. 0. 0. 0. 0.
      0. 0. 0. 0. 0. 0. 0. 0. 0. 0. 107. 252. 252. 252. 129. 0. 0. 48.
      81. 71. 12. 0. 0. 0. 0. 0. 0. 0. 0. 56. 211. 252. 252. 252. 246.
      221. 221. 239. 252. 248. 225. 146. 0. 0. 0. 0. 0. 0. 0. 9. 151.
      252. 252. 252. 252. 252. 252. 252. 252. 252. 251. 104. 0. 0. 0. 0.
      0. 0. 0. 0. 52. 189. 223. 223. 196. 180. 180. 118. 74. 74. 72. 0.
      0. 0. 0. 0. 0. 0. 0. 0. 0. 9. 42. 42. 16. 0. 0. 0. 0. 0. 0. 0. 0.
      0. 0. 0. 0. 0. 0. 0. 0. 0. 0. 0. 0. 0. 0. 0. 0. 0. 0. 0. 0. 0. 0.
      0. 0. 0. 0. 0. 0. 0. 0. 0. 0. 0. 0. 0. 0. 0. 0. 0. 0. 0. 0. 0. 0.
      0. 0. 0. 0. 0. 0. 0. 0. 0. 0. 0. 0. 0. 0. 0. 0. 0.</_>
    <_>
      0. 0. 0. 0. 0. 0. 0. 0. 0. 0. 0. 0. 0. 0. 0. 0. 0. 0. 0. 0. 0. 0.
      0. 0. 0. 0. 0. 0. 0. 0. 0. 0. 0. 0. 0. 0. 0. 0. 0. 0. 0. 0. 0. 0.
      0. 0. 0. 81. 161. 162. 176. 95. 0. 0. 0. 0. 0. 0. 0. 0. 0. 0. 0.
      0. 0. 24. 178. 236. 207. 207. 224. 245. 210. 56. 1. 0. 0. 0. 0. 0.
      0. 0. 0. 0. 0. 168. 167. 43. 27. 28. 41. 140. 254. 211. 33. 0. 0.
      0. 0. 0. 0. 0. 0. 0. 0. 80. 19. 0. 0. 0. 0. 0. 142. 247. 127. 0.
      0. 0. 0. 0. 0. 0. 0. 0. 0. 0. 0. 0. 0. 0. 0. 0. 13. 177. 239. 4.
      0. 0. 0. 0. 0. 0. 0. 0. 0. 0. 0. 0. 0. 0. 0. 0. 0. 129. 253. 74.
      0. 0. 0. 0. 0. 0. 0. 0. 0. 0. 0. 0. 0. 0. 0. 0. 0. 93. 246. 116.
      0. 0. 0. 0. 0. 0. 0. 0. 0. 0. 0. 0. 0. 0. 0. 0. 0. 100. 247. 120.
      0. 0. 0. 0. 0. 0. 0. 0. 2. 61. 125. 125. 75. 47. 37. 36. 32. 145.
      253. 56. 65. 34. 0. 0. 0. 0. 0. 0. 75. 232. 254. 253. 253. 246.
      226. 224. 217. 235. 253. 174. 172. 31. 0. 0. 0. 0. 0. 20. 208.
      224. 85. 46. 46. 93. 113. 134. 254. 253. 185. 27. 0. 0. 0. 0. 0.
      0. 0. 17. 205. 201. 20. 0. 8. 34. 117. 230. 254. 145. 25. 0. 0. 0.
      0. 0. 0. 0. 0. 8. 193. 245. 199. 158. 193. 219. 251. 213. 96. 12.
      0. 0. 0. 0. 0. 0. 0. 0. 0. 0. 113. 217. 242. 243. 232. 219. 148.
      19. 0. 0. 0. 0. 0. 0. 0. 0. 0. 0. 0. 0. 0. 34. 78. 81. 59. 32. 2.
      0. 0. 0. 0. 0. 0. 0. 0. 0. 0. 0. 0. 0. 0. 0. 0. 0. 0. 0. 0. 0. 0.
      0. 0. 0. 0. 0. 0. 0. 0. 0. 0. 0. 0. 0. 0. 0. 0. 0. 0. 0. 0. 0. 0.
      0. 0. 0. 0. 0. 0. 0. 0. 0. 0. 0. 0. 0. 0. 0. 0. 0. 0. 0. 0. 0. 0.
      0. 0. 0.</_>
    <_>
      0. 0. 0. 0. 0. 0. 0. 0. 0. 0. 0. 0. 0. 0. 0. 0. 0. 0. 0. 0. 0. 0.
      0. 0. 0. 0. 0. 0. 0. 0. 0. 0. 0. 0. 0. 0. 0. 0. 0. 0. 0. 0. 0. 0.
      0. 0. 0. 0. 34. 141. 254. 153. 10. 0. 0. 0. 0. 0. 0. 0. 0. 0. 0.
      0. 0. 0. 0. 92. 174. 170. 219. 253. 116. 0. 0. 0. 0. 0. 0. 0. 0.
      0. 0. 0. 0. 0. 0. 76. 32. 9. 99. 249. 213. 2. 0. 0. 0. 0. 0. 0. 0.
      0. 0. 0. 0. 0. 0. 0. 0. 0. 43. 237. 253. 3. 0. 0. 0. 0. 0. 0. 0.
      0. 0. 0. 0. 0. 0. 0. 0. 0. 43. 237. 253. 3. 0. 0. 0. 0. 0. 0. 0.
      0. 0. 0. 0. 0. 0. 0. 0. 0. 43. 237. 189. 1. 0. 0. 0. 0. 0. 0. 0.
      0. 0. 0. 0. 0. 0. 0. 0. 0. 88. 247. 155. 0. 0. 0. 0. 0. 0. 0. 0.
      0. 0. 0. 0. 0. 0. 0. 0. 0. 170. 253. 155. 0. 0. 0. 0. 0. 0. 0. 0.
      0. 0. 0. 0. 0. 0. 0. 11. 27. 252. 243. 70. 0. 0. 0. 0. 0. 0. 0. 0.
      0. 0. 0. 0. 0. 12. 127. 170. 184. 253. 239. 94. 73. 27. 4. 0. 0.
      0. 0. 0. 0. 0. 0. 0. 6. 142. 253. 253. 253. 253. 253. 253. 253.
      253. 196. 117. 75. 0. 0. 0. 0. 0. 0. 0. 81. 244. 170. 163. 237.
      156. 81. 127. 122. 149. 175. 185. 184. 94. 5. 0. 0. 0. 0. 0. 158.
      246. 139. 229. 140. 10. 0. 0. 5. 3. 13. 17. 17. 4. 0. 0. 0. 0. 0.
      0. 129. 241. 232. 156. 16. 0. 0. 0. 0. 0. 0. 0. 0. 0. 0. 0. 0. 0.
      0. 0. 13. 77. 60. 12. 0. 0. 0. 0. 0. 0. 0. 0. 0. 0. 0. 0. 0. 0. 0.
      0. 0. 0. 0. 0. 0. 0. 0. 0. 0. 0. 0. 0. 0. 0. 0. 0. 0. 0. 0. 0. 0.
      0. 0. 0. 0. 0. 0. 0. 0. 0. 0. 0. 0. 0. 0. 0. 0. 0. 0. 0. 0. 0. 0.
      0. 0. 0. 0. 0. 0. 0. 0. 0. 0. 0. 0.</_>
    <_>
      0. 0. 0. 0. 0. 0. 0. 0. 0. 0. 0. 0. 0. 0. 0. 0. 0. 0. 0. 0. 0. 0.
      0. 0. 0. 0. 0. 0. 0. 0. 0. 0. 0. 0. 0. 0. 0. 0. 0. 0. 0. 0. 0. 0.
      0. 0. 0. 0. 0. 0. 0. 0. 0. 0. 0. 0. 0. 0. 0. 0. 0. 0. 0. 0. 0. 5.
      117. 179. 255. 255. 255. 255. 179. 31. 0. 0. 0. 0. 0. 0. 0. 0. 0.
      0. 0. 84. 240. 255. 163. 61. 71. 184. 255. 158. 10. 0. 0. 0. 0. 0.
      0. 0. 0. 0. 0. 204. 240. 51. 0. 0. 0. 77. 255. 204. 25. 0. 0. 0.
      0. 0. 0. 0. 0. 0. 0. 97. 102. 0. 0. 0. 0. 77. 255. 204. 25. 0. 0.
      0. 0. 0. 0. 0. 0. 0. 0. 0. 0. 0. 0. 0. 0. 77. 255. 204. 26. 0. 0.
      0. 0. 0. 0. 0. 0. 0. 0. 0. 0. 0. 0. 0. 0. 77. 255. 204. 25. 0. 0.
      0. 0. 0. 0. 0. 0. 0. 0. 0. 0. 0. 0. 0. 0. 77. 255. 204. 25. 0. 0.
      0. 0. 0. 0. 0. 0. 0. 0. 0. 0. 38. 92. 153. 194. 214. 255. 199. 23.
      0. 0. 0. 0. 0. 0. 0. 0. 0. 0. 8. 107. 229. 255. 255. 255. 255.
      255. 224. 97. 77. 31. 0. 0. 0. 0. 0. 0. 0. 0. 26. 204. 255. 153.
      0. 204. 255. 255. 255. 255. 255. 102. 0. 0. 0. 0. 0. 0. 0. 0. 15.
      183. 204. 23. 92. 255. 255. 179. 130. 173. 191. 56. 0. 0. 0. 0. 0.
      0. 0. 0. 48. 250. 178. 143. 234. 255. 194. 13. 0. 10. 23. 5. 0. 0.
      0. 0. 0. 0. 0. 0. 46. 245. 255. 255. 245. 194. 20. 0. 0. 0. 0. 0.
      0. 0. 0. 0. 0. 0. 0. 0. 10. 128. 216. 224. 128. 41. 0. 0. 0. 0. 0.
      0. 0. 0. 0. 0. 0. 0. 0. 0. 0. 0. 0. 0. 0. 0. 0. 0. 0. 0. 0. 0. 0.
      0. 0. 0. 0. 0. 0. 0. 0. 0. 0. 0. 0. 0. 0. 0. 0. 0. 0. 0. 0. 0. 0.
      0. 0. 0. 0. 0. 0. 0. 0. 0. 0. 0. 0. 0. 0. 0. 0. 0. 0. 0. 0.</_>
    <_>
      0. 0. 0. 0. 0. 0. 0. 0. 0. 0. 0. 0. 0. 0. 0. 0. 0. 0. 0. 0. 0. 0.
      0. 0. 0. 0. 0. 0. 0. 0. 0. 0. 0. 0. 0. 0. 0. 0. 0. 0. 0. 0. 0. 0.
      0. 0. 0. 0. 0. 0. 0. 0. 0. 0. 0. 0. 0. 0. 0. 0. 0. 0. 0. 0. 14.
      156. 110. 77. 18. 0. 0. 0. 0. 0. 0. 0. 0. 0. 0. 0. 0. 0. 0. 0.
      111. 251. 249. 241. 184. 29. 0. 0. 0. 0. 0. 0. 0. 0. 0. 0. 0. 0.
      0. 0. 75. 184. 215. 237. 249. 209. 36. 0. 0. 0. 0. 0. 0. 0. 0. 0.
      0. 0. 0. 0. 0. 14. 26. 69. 187. 251. 146. 25. 0. 0. 0. 0. 0. 0. 0.
      0. 0. 0. 0. 0. 0. 0. 0. 0. 34. 212. 253. 110. 0. 0. 0. 0. 0. 0. 0.
      0. 0. 0. 0. 0. 0. 0. 0. 0. 4. 146. 253. 181. 0. 0. 0. 0. 0. 0. 0.
      0. 0. 0. 0. 0. 0. 0. 0. 0. 82. 232. 254. 152. 0. 0. 0. 0. 0. 0. 0.
      0. 0. 0. 0. 0. 0. 0. 15. 46. 184. 253. 213. 64. 0. 2. 16. 23. 40.
      8. 0. 0. 0. 0. 0. 0. 0. 32. 150. 243. 251. 253. 122. 51. 82. 136.
      181. 197. 233. 105. 0. 0. 0. 0. 0. 0. 0. 221. 253. 253. 253. 253.
      253. 254. 253. 253. 253. 253. 253. 250. 78. 0. 0. 0. 0. 0. 0. 237.
      253. 253. 253. 253. 249. 237. 214. 184. 184. 184. 184. 147. 72. 0.
      0. 0. 0. 0. 0. 94. 204. 231. 175. 125. 105. 43. 31. 16. 16. 16.
      16. 7. 0. 0. 0. 0. 0. 0. 0. 0. 0. 0. 0. 0. 0. 0. 0. 0. 0. 0. 0. 0.
      0. 0. 0. 0. 0. 0. 0. 0. 0. 0. 0. 0. 0. 0. 0. 0. 0. 0. 0. 0. 0. 0.
      0. 0. 0. 0. 0. 0. 0. 0. 0. 0. 0. 0. 0. 0. 0. 0. 0. 0. 0. 0. 0. 0.
      0. 0. 0. 0. 0. 0. 0. 0. 0. 0. 0. 0. 0. 0. 0. 0. 0. 0. 0. 0. 0. 0.
      0. 0. 0. 0. 0. 0. 0. 0. 0. 0. 0. 0. 0. 0. 0. 0.</_>
    <_>
      0. 0. 0. 0. 0. 0. 0. 0. 0. 0. 0. 0. 0. 0. 0. 0. 0. 0. 0. 0. 0. 0.
      0. 0. 0. 0. 0. 0. 0. 0. 0. 0. 0. 0. 0. 0. 0. 0. 0. 0. 0. 0. 0. 0.
      0. 0. 0. 0. 0. 0. 0. 0. 0. 0. 0. 0. 0. 0. 0. 0. 0. 0. 0. 0. 0. 0.
      0. 0. 0. 0. 0. 0. 0. 0. 0. 0. 0. 0. 0. 0. 0. 0. 0. 0. 0. 0. 0. 0.
      0. 0. 0. 0. 0. 0. 0. 0. 0. 0. 0. 0. 0. 0. 0. 16. 45. 51. 88. 90.
      90. 90. 93. 92. 87. 18. 0. 0. 0. 0. 0. 0. 0. 0. 0. 54. 133. 98.
      80. 81. 81. 81. 92. 126. 251. 92. 0. 0. 0. 0. 0. 0. 0. 0. 0. 0. 0.
      0. 0. 0. 0. 0. 13. 169. 225. 17. 0. 0. 0. 0. 0. 0. 0. 0. 0. 0. 0.
      0. 0. 0. 0. 2. 113. 208. 49. 0. 0. 0. 0. 0. 0. 0. 0. 0. 0. 0. 0.
      0. 0. 0. 0. 66. 221. 82. 0. 0. 0. 0. 0. 0. 0. 0. 0. 0. 0. 0. 0. 0.
      0. 0. 27. 203. 141. 9. 0. 0. 0. 0. 0. 0. 0. 0. 0. 0. 0. 0. 0. 0.
      0. 0. 135. 190. 27. 0. 0. 0. 0. 0. 0. 0. 0. 0. 0. 0. 0. 0. 0. 0.
      0. 21. 229. 68. 0. 0. 0. 0. 0. 0. 0. 0. 0. 0. 0. 0. 0. 0. 0. 0. 0.
      17. 199. 53. 0. 0. 0. 0. 0. 13. 45. 53. 0. 0. 0. 0. 0. 0. 0. 0. 0.
      0. 120. 190. 165. 119. 99. 114. 162. 139. 111. 61. 0. 0. 0. 0. 0.
      0. 0. 0. 0. 0. 0. 24. 76. 138. 117. 98. 49. 19. 0. 0. 0. 0. 0. 0.
      0. 0. 0. 0. 0. 0. 0. 0. 0. 0. 0. 0. 0. 0. 0. 0. 0. 0. 0. 0. 0. 0.
      0. 0. 0. 0. 0. 0. 0. 0. 0. 0. 0. 0. 0. 0. 0. 0. 0. 0. 0. 0. 0. 0.
      0. 0. 0. 0. 0. 0. 0. 0. 0. 0. 0. 0. 0. 0. 0. 0. 0. 0. 0. 0. 0. 0.
      0. 0. 0. 0. 0. 0. 0. 0. 0. 0. 0. 0.</_>
    <_>
      0. 0. 0. 0. 0. 0. 0. 0. 0. 0. 0. 0. 0. 0. 0. 0. 0. 0. 0. 0. 0. 0.
      0. 0. 0. 0. 0. 0. 0. 0. 0. 0. 0. 0. 0. 0. 0. 0. 0. 0. 0. 0. 0. 0.
      0. 0. 0. 0. 0. 0. 0. 0. 0. 0. 0. 0. 0. 0. 0. 0. 0. 0. 0. 0. 0. 0.
      0. 0. 72. 203. 249. 149. 0. 0. 0. 0. 0. 0. 0. 0. 0. 0. 0. 0. 0. 0.
      0. 14. 213. 216. 171. 244. 100. 0. 0. 0. 0. 0. 0. 0. 0. 0. 0. 0.
      0. 0. 0. 85. 250. 70. 18. 189. 221. 4. 0. 0. 0. 0. 0. 0. 0. 0. 0.
      0. 0. 0. 0. 84. 230. 42. 3. 160. 254. 39. 0. 0. 0. 0. 0. 0. 0. 0.
      0. 0. 0. 0. 0. 0. 44. 7. 1. 125. 254. 59. 0. 0. 0. 0. 0. 0. 0. 0.
      0. 0. 0. 0. 0. 0. 0. 0. 0. 110. 254. 59. 0. 0. 0. 0. 0. 0. 0. 0.
      0. 0. 0. 0. 0. 0. 0. 0. 3. 144. 254. 51. 0. 0. 0. 0. 0. 0. 0. 0.
      0. 0. 0. 0. 0. 1. 53. 34. 5. 162. 247. 5. 0. 0. 0. 0. 0. 0. 0. 0.
      0. 0. 0. 0. 0. 54. 233. 207. 83. 195. 172. 1. 0. 0. 0. 0. 0. 0. 0.
      0. 0. 0. 0. 0. 0. 174. 254. 254. 254. 253. 58. 0. 0. 0. 0. 0. 0.
      0. 0. 0. 0. 0. 0. 0. 36. 252. 189. 144. 254. 253. 160. 23. 0. 0.
      0. 0. 0. 0. 0. 0. 0. 0. 0. 0. 59. 254. 117. 96. 250. 184. 151. 19.
      0. 0. 0. 0. 0. 0. 0. 0. 0. 0. 0. 0. 28. 234. 211. 228. 172. 16. 0.
      0. 0. 0. 0. 0. 0. 0. 0. 0. 0. 0. 0. 0. 1. 78. 225. 145. 22. 0. 0.
      0. 0. 0. 0. 0. 0. 0. 0. 0. 0. 0. 0. 0. 0. 0. 0. 0. 0. 0. 0. 0. 0.
      0. 0. 0. 0. 0. 0. 0. 0. 0. 0. 0. 0. 0. 0. 0. 0. 0. 0. 0. 0. 0. 0.
      0. 0. 0. 0. 0. 0. 0. 0. 0. 0. 0. 0. 0. 0. 0. 0. 0. 0. 0. 0. 0. 0.
      0.</_>
    <_>
      0. 0. 0. 0. 0. 0. 0. 0. 0. 0. 0. 0. 0. 0. 0. 0. 0. 0. 0. 0. 0. 0.
      0. 0. 0. 0. 0. 0. 0. 0. 0. 0. 0. 0. 0. 0. 0. 0. 0. 0. 0. 0. 0. 0.
      0. 0. 0. 0. 0. 0. 0. 0. 0. 0. 0. 0. 0. 0. 0. 0. 0. 0. 0. 0. 0. 0.
      5. 71. 114. 114. 95. 19. 18. 15. 2. 0. 0. 0. 0. 0. 0. 0. 0. 0. 0.
      0. 58. 231. 250. 250. 242. 210. 209. 171. 23. 0. 0. 0. 0. 0. 0. 0.
      0. 0. 0. 0. 63. 227. 148. 126. 147. 230. 250. 227. 93. 7. 0. 0. 0.
      0. 0. 0. 0. 0. 0. 0. 15. 54. 12. 0. 11. 76. 250. 250. 226. 103. 9.
      0. 0. 0. 0. 0. 0. 0. 0. 0. 0. 0. 0. 0. 0. 10. 133. 250. 250. 213.
      27. 0. 0. 0. 0. 0. 0. 0. 0. 0. 0. 0. 0. 0. 0. 0. 11. 134. 241.
      213. 27. 0. 0. 0. 0. 0. 0. 0. 0. 0. 0. 102. 40. 0. 0. 0. 0. 50.
      224. 213. 27. 0. 0. 0. 0. 0. 0. 6. 85. 252. 252. 252. 252. 252.
      252. 253. 252. 252. 252. 215. 27. 0. 0. 0. 0. 0. 0. 71. 235. 250.
      250. 250. 250. 250. 250. 251. 250. 250. 250. 213. 27. 0. 0. 0. 0.
      0. 0. 101. 250. 250. 250. 250. 250. 250. 250. 251. 250. 250. 250.
      213. 27. 0. 0. 0. 0. 0. 0. 101. 250. 250. 250. 250. 250. 250. 250.
      251. 235. 195. 219. 221. 76. 5. 0. 0. 0. 0. 0. 54. 227. 250. 250.
      250. 250. 166. 122. 122. 94. 23. 66. 209. 230. 137. 0. 0. 0. 0. 0.
      2. 44. 54. 54. 54. 54. 18. 0. 0. 0. 0. 0. 61. 213. 250. 0. 0. 0.
      0. 0. 0. 0. 0. 0. 0. 0. 0. 0. 0. 0. 0. 0. 3. 63. 112. 0. 0. 0. 0.
      0. 0. 0. 0. 0. 0. 0. 0. 0. 0. 0. 0. 0. 0. 0. 0. 0. 0. 0. 0. 0. 0.
      0. 0. 0. 0. 0. 0. 0. 0. 0. 0. 0. 0. 0. 0. 0. 0. 0. 0. 0. 0. 0. 0.
      0. 0. 0. 0. 0. 0. 0. 0. 0. 0. 0. 0. 0. 0.</_>
    <_>
      0. 0. 0. 0. 0. 0. 0. 0. 0. 0. 0. 0. 0. 0. 0. 0. 0. 0. 0. 0. 0. 0.
      0. 0. 0. 0. 0. 0. 0. 0. 0. 0. 0. 0. 0. 0. 0. 0. 0. 0. 0. 0. 0. 0.
      0. 0. 0. 0. 0. 0. 0. 0. 0. 0. 0. 0. 0. 0. 0. 0. 0. 0. 0. 0. 0. 0.
      0. 0. 0. 15. 70. 145. 221. 169. 8. 0. 0. 0. 0. 0. 0. 0. 0. 0. 0.
      0. 0. 0. 22. 166. 234. 250. 252. 213. 31. 0. 0. 0. 0. 0. 0. 0. 0.
      0. 0. 0. 3. 36. 158. 251. 239. 221. 252. 222. 35. 0. 0. 0. 0. 0.
      0. 0. 0. 0. 0. 13. 102. 223. 246. 223. 90. 66. 252. 218. 33. 0. 0.
      0. 0. 0. 0. 0. 0. 0. 0. 62. 252. 252. 138. 15. 0. 125. 252. 163.
      6. 0. 0. 0. 0. 0. 0. 0. 0. 0. 0. 31. 158. 164. 51. 1. 22. 195.
      252. 157. 5. 0. 0. 0. 0. 0. 0. 0. 0. 0. 0. 1. 9. 25. 75. 1. 46.
      242. 245. 56. 1. 0. 0. 0. 0. 0. 0. 0. 0. 0. 0. 0. 0. 0. 0. 39.
      214. 251. 154. 0. 0. 0. 0. 0. 0. 0. 0. 0. 0. 0. 0. 0. 0. 0. 14.
      171. 252. 193. 27. 0. 0. 0. 0. 0. 0. 0. 0. 0. 0. 0. 0. 0. 0. 0.
      105. 235. 252. 128. 0. 0. 12. 120. 65. 0. 0. 0. 0. 0. 0. 0. 0. 0.
      38. 134. 247. 252. 252. 200. 151. 235. 229. 197. 76. 0. 0. 0. 0.
      0. 0. 0. 0. 10. 153. 248. 252. 252. 252. 252. 252. 178. 88. 25. 4.
      0. 0. 0. 0. 0. 0. 0. 81. 208. 249. 252. 249. 239. 197. 114. 11. 4.
      0. 0. 0. 0. 0. 0. 0. 0. 0. 0. 166. 252. 252. 241. 132. 75. 19. 0.
      0. 0. 0. 0. 0. 0. 0. 0. 0. 0. 0. 0. 0. 0. 0. 0. 0. 0. 0. 0. 0. 0.
      0. 0. 0. 0. 0. 0. 0. 0. 0. 0. 0. 0. 0. 0. 0. 0. 0. 0. 0. 0. 0. 0.
      0. 0. 0. 0. 0. 0. 0. 0. 0. 0. 0. 0. 0. 0. 0. 0. 0. 0. 0. 0. 0. 0.
      0. 0.</_>
    <_>
      0. 0. 0. 0. 0. 0. 0. 0. 0. 0. 0. 0. 0. 0. 0. 0. 0. 0. 0. 0. 0. 0.
      0. 0. 0. 0. 0. 0. 0. 0. 0. 0. 0. 0. 0. 0. 0. 0. 0. 0. 0. 0. 0. 23.
      191. 232. 174. 197. 130. 6. 0. 0. 0. 0. 0. 0. 0. 0. 0. 0. 0. 0. 0.
      23. 191. 253. 253. 252. 239. 180. 44. 0. 0. 0. 0. 0. 0. 0. 0. 0.
      0. 0. 0. 5. 146. 253. 252. 251. 252. 253. 201. 36. 0. 0. 0. 0. 0.
      0. 0. 0. 0. 0. 0. 0. 0. 135. 152. 162. 219. 247. 253. 253. 23. 0.
      0. 0. 0. 0. 0. 0. 0. 0. 0. 0. 0. 0. 7. 11. 33. 128. 252. 253. 147.
      0. 0. 0. 0. 0. 0. 0. 0. 0. 0. 0. 0. 0. 0. 0. 0. 22. 117. 252. 168.
      0. 0. 0. 0. 0. 0. 0. 0. 0. 0. 0. 0. 0. 0. 0. 0. 0. 87. 253. 231.
      37. 0. 0. 0. 0. 0. 0. 0. 0. 0. 0. 0. 0. 0. 0. 0. 54. 231. 253.
      197. 17. 0. 0. 0. 0. 0. 0. 0. 0. 0. 0. 0. 0. 0. 0. 10. 98. 252.
      252. 253. 77. 17. 51. 41. 0. 0. 0. 0. 0. 0. 0. 0. 0. 0. 0. 152.
      240. 252. 252. 253. 225. 185. 253. 202. 0. 0. 0. 0. 0. 0. 0. 0. 0.
      51. 253. 254. 254. 253. 253. 254. 253. 253. 254. 203. 0. 0. 0. 0.
      0. 0. 0. 0. 5. 141. 252. 253. 253. 252. 252. 253. 252. 252. 253.
      188. 0. 0. 0. 0. 0. 0. 0. 0. 11. 174. 251. 252. 253. 252. 252.
      253. 252. 252. 118. 60. 0. 0. 0. 0. 0. 0. 0. 0. 0. 105. 252. 244.
      222. 214. 157. 91. 0. 0. 0. 0. 0. 0. 0. 0. 0. 0. 0. 0. 0. 20. 100.
      83. 38. 31. 9. 0. 0. 0. 0. 0. 0. 0. 0. 0. 0. 0. 0. 0. 0. 0. 0. 0.
      0. 0. 0. 0. 0. 0. 0. 0. 0. 0. 0. 0. 0. 0. 0. 0. 0. 0. 0. 0. 0. 0.
      0. 0. 0. 0. 0. 0. 0. 0. 0. 0. 0. 0. 0. 0. 0. 0. 0. 0. 0. 0. 0. 0.
      0. 0. 0. 0. 0. 0. 0.</_>
    <_>
      0. 0. 0. 0. 0. 0. 0. 0. 0. 0. 0. 0. 0. 0. 0. 0. 0. 0. 0. 0. 0. 0.
      0. 0. 0. 0. 0. 0. 0. 0. 0. 0. 0. 0. 0. 0. 0. 0. 0. 0. 0. 0. 0. 0.
      93. 255. 255. 254. 254. 164. 8. 0. 0. 0. 0. 0. 0. 0. 0. 0. 0. 0.
      0. 0. 203. 253. 253. 253. 253. 253. 175. 47. 0. 0. 0. 0. 0. 0. 0.
      0. 0. 0. 0. 0. 204. 253. 253. 253. 253. 253. 249. 139. 0. 0. 0. 0.
      0. 0. 0. 0. 0. 0. 0. 0. 203. 251. 242. 211. 217. 247. 253. 219.
      17. 0. 0. 0. 0. 0. 0. 0. 0. 0. 0. 0. 162. 135. 80. 18. 50. 222.
      253. 253. 27. 0. 0. 0. 0. 0. 0. 0. 0. 0. 0. 0. 0. 0. 0. 0. 34.
      219. 253. 253. 27. 0. 0. 0. 0. 0. 0. 0. 0. 0. 0. 0. 0. 0. 0. 0.
      88. 235. 253. 239. 23. 0. 0. 0. 0. 0. 0. 0. 0. 0. 0. 0. 0. 0. 0.
      72. 225. 253. 253. 169. 3. 0. 0. 0. 0. 0. 0. 0. 0. 0. 0. 0. 0. 13.
      101. 243. 253. 253. 217. 51. 0. 6. 19. 54. 81. 42. 0. 0. 0. 0. 0.
      0. 0. 40. 231. 253. 253. 253. 209. 102. 102. 126. 187. 226. 253.
      179. 16. 0. 0. 0. 0. 0. 0. 40. 231. 253. 253. 253. 253. 253. 253.
      253. 253. 253. 253. 253. 60. 0. 0. 0. 0. 0. 0. 40. 231. 253. 253.
      253. 253. 253. 253. 253. 253. 253. 253. 253. 152. 0. 0. 0. 0. 0.
      0. 39. 231. 253. 253. 253. 253. 253. 253. 253. 253. 253. 247. 207.
      124. 0. 0. 0. 0. 0. 0. 16. 115. 215. 215. 215. 215. 215. 198. 104.
      104. 104. 91. 0. 0. 0. 0. 0. 0. 0. 0. 0. 5. 26. 26. 26. 26. 26.
      22. 0. 0. 0. 0. 0. 0. 0. 0. 0. 0. 0. 0. 0. 0. 0. 0. 0. 0. 0. 0. 0.
      0. 0. 0. 0. 0. 0. 0. 0. 0. 0. 0. 0. 0. 0. 0. 0. 0. 0. 0. 0. 0. 0.
      0. 0. 0. 0. 0. 0. 0. 0. 0. 0. 0. 0. 0. 0. 0. 0. 0. 0. 0. 0. 0. 0.
      0. 0.</_>
    <_>
      0. 0. 0. 0. 0. 0. 0. 0. 0. 0. 0. 0. 0. 0. 0. 0. 0. 0. 0. 0. 0. 0.
      0. 0. 0. 0. 0. 0. 0. 0. 0. 0. 0. 0. 0. 0. 0. 0. 0. 0. 0. 0. 0. 0.
      0. 0. 0. 0. 0. 0. 0. 0. 0. 0. 0. 0. 0. 0. 0. 0. 0. 0. 0. 0. 0. 0.
      0. 0. 8. 10. 0. 0. 0. 0. 0. 0. 0. 0. 0. 0. 0. 0. 0. 0. 0. 0. 35.
      119. 188. 191. 167. 63. 1. 0. 0. 0. 0. 0. 0. 0. 0. 0. 0. 0. 10.
      82. 226. 231. 216. 203. 217. 246. 130. 8. 0. 0. 0. 0. 0. 0. 0. 0.
      0. 0. 135. 239. 190. 55. 26. 19. 32. 142. 252. 65. 0. 0. 0. 0. 0.
      0. 0. 0. 0. 0. 58. 205. 184. 0. 0. 0. 0. 22. 245. 128. 2. 0. 0. 0.
      0. 0. 0. 0. 0. 0. 0. 0. 0. 0. 0. 0. 0. 0. 239. 171. 10. 0. 0. 0.
      0. 0. 0. 0. 0. 0. 0. 0. 0. 0. 0. 0. 0. 29. 247. 163. 8. 0. 0. 0.
      0. 0. 0. 0. 0. 0. 0. 0. 0. 0. 0. 0. 6. 137. 248. 53. 0. 0. 0. 0.
      0. 0. 0. 0. 0. 0. 0. 0. 29. 80. 36. 14. 72. 216. 122. 1. 0. 0. 0.
      0. 0. 0. 0. 0. 0. 0. 0. 1. 155. 254. 254. 225. 235. 254. 108. 99.
      99. 117. 199. 207. 124. 0. 0. 0. 0. 0. 0. 1. 155. 197. 95. 233.
      207. 143. 136. 136. 173. 166. 79. 53. 4. 0. 0. 0. 0. 0. 0. 0. 112.
      249. 239. 203. 48. 2. 0. 0. 12. 14. 1. 0. 0. 0. 0. 0. 0. 0. 0. 0.
      42. 208. 194. 49. 0. 0. 0. 0. 0. 0. 0. 0. 0. 0. 0. 0. 0. 0. 0. 0.
      0. 23. 17. 0. 0. 0. 0. 0. 0. 0. 0. 0. 0. 0. 0. 0. 0. 0. 0. 0. 0.
      0. 0. 0. 0. 0. 0. 0. 0. 0. 0. 0. 0. 0. 0. 0. 0. 0. 0. 0. 0. 0. 0.
      0. 0. 0. 0. 0. 0. 0. 0. 0. 0. 0. 0. 0. 0. 0. 0. 0. 0. 0. 0. 0. 0.
      0. 0. 0. 0. 0. 0. 0. 0. 0.</_>
    <_>
      0. 0. 0. 0. 0. 0. 0. 0. 0. 0. 0. 0. 0. 0. 0. 0. 0. 0. 0. 0. 0. 0.
      0. 0. 0. 0. 0. 0. 0. 0. 0. 0. 0. 0. 0. 0. 0. 0. 0. 0. 0. 0. 0. 0.
      0. 0. 0. 0. 1. 30. 150. 244. 255. 63. 1. 0. 0. 0. 0. 0. 0. 0. 0.
      0. 0. 0. 0. 0. 34. 219. 253. 253. 253. 242. 120. 6. 0. 0. 0. 0. 0.
      0. 0. 0. 0. 0. 0. 0. 91. 242. 253. 253. 253. 253. 246. 93. 0. 0.
      0. 0. 0. 0. 0. 0. 0. 0. 0. 0. 22. 75. 89. 98. 79. 159. 247. 179.
      9. 0. 0. 0. 0. 0. 0. 0. 0. 0. 0. 0. 0. 0. 0. 0. 0. 21. 201. 226.
      47. 0. 0. 0. 0. 0. 0. 0. 0. 0. 0. 0. 0. 0. 0. 0. 0. 28. 211. 229.
      54. 0. 0. 0. 0. 0. 0. 0. 0. 0. 0. 0. 0. 0. 0. 0. 0. 108. 244. 195.
      38. 0. 0. 0. 0. 0. 0. 0. 0. 0. 0. 0. 0. 0. 0. 0. 46. 221. 253. 98.
      3. 0. 0. 0. 0. 0. 0. 0. 1. 16. 16. 16. 15. 3. 4. 85. 246. 250.
      165. 3. 0. 0. 0. 0. 0. 0. 0. 1. 79. 184. 184. 184. 179. 136. 139.
      224. 253. 166. 34. 0. 0. 0. 0. 0. 0. 0. 0. 67. 235. 253. 253. 253.
      253. 253. 253. 253. 253. 84. 2. 0. 0. 0. 0. 0. 0. 0. 0. 132. 253.
      219. 117. 110. 226. 253. 214. 201. 211. 211. 214. 154. 64. 0. 0.
      0. 0. 0. 0. 178. 253. 236. 205. 248. 252. 200. 53. 25. 30. 35. 47.
      32. 20. 0. 0. 0. 0. 0. 0. 189. 251. 253. 243. 212. 98. 10. 0. 0.
      0. 0. 0. 0. 0. 0. 0. 0. 0. 0. 0. 33. 97. 101. 82. 19. 0. 0. 0. 0.
      0. 0. 0. 0. 0. 0. 0. 0. 0. 0. 0. 0. 0. 0. 0. 0. 0. 0. 0. 0. 0. 0.
      0. 0. 0. 0. 0. 0. 0. 0. 0. 0. 0. 0. 0. 0. 0. 0. 0. 0. 0. 0. 0. 0.
      0. 0. 0. 0. 0. 0. 0. 0. 0. 0. 0. 0. 0. 0. 0. 0. 0. 0. 0. 0. 0. 0.
      0. 0.</_>
    <_>
      0. 0. 0. 0. 0. 0. 0. 0. 0. 0. 0. 0. 0. 0. 0. 0. 0. 0. 0. 0. 0. 0.
      0. 0. 0. 0. 0. 0. 0. 0. 0. 0. 0. 0. 0. 0. 0. 0. 0. 0. 0. 0. 0. 0.
      0. 0. 0. 32. 145. 238. 109. 12. 0. 0. 0. 0. 0. 0. 0. 0. 0. 0. 0.
      0. 0. 0. 0. 156. 252. 253. 246. 176. 114. 11. 0. 0. 0. 0. 0. 0. 0.
      0. 0. 0. 0. 0. 0. 217. 252. 253. 252. 252. 247. 125. 7. 0. 0. 0.
      0. 0. 0. 0. 0. 0. 0. 0. 0. 0. 56. 115. 129. 217. 253. 245. 114. 0.
      0. 0. 0. 0. 0. 0. 0. 0. 0. 0. 0. 0. 0. 0. 4. 50. 190. 252. 245.
      10. 0. 0. 0. 0. 0. 0. 0. 0. 0. 0. 0. 0. 0. 0. 0. 0. 109. 252. 252.
      115. 0. 0. 0. 0. 0. 0. 0. 0. 0. 0. 0. 0. 0. 0. 0. 0. 110. 253.
      253. 116. 0. 0. 0. 0. 0. 0. 0. 0. 0. 0. 0. 0. 0. 0. 0. 0. 109.
      252. 252. 49. 0. 0. 0. 0. 0. 0. 0. 0. 0. 0. 13. 22. 36. 41. 21.
      15. 121. 252. 252. 0. 0. 0. 0. 0. 0. 0. 0. 0. 0. 61. 169. 195.
      222. 233. 193. 175. 220. 252. 252. 81. 12. 0. 0. 0. 0. 0. 0. 0. 9.
      203. 252. 252. 252. 253. 252. 252. 253. 252. 252. 218. 30. 0. 0.
      0. 0. 0. 0. 0. 58. 252. 252. 252. 252. 253. 252. 252. 254. 212.
      209. 157. 33. 0. 0. 0. 0. 0. 0. 0. 45. 239. 252. 252. 252. 253.
      250. 174. 79. 33. 29. 13. 0. 0. 0. 0. 0. 0. 0. 0. 0. 173. 240.
      252. 238. 224. 73. 20. 0. 0. 0. 0. 0. 0. 0. 0. 0. 0. 0. 0. 0. 34.
      78. 101. 73. 43. 5. 0. 0. 0. 0. 0. 0. 0. 0. 0. 0. 0. 0. 0. 0. 0.
      0. 0. 0. 0. 0. 0. 0. 0. 0. 0. 0. 0. 0. 0. 0. 0. 0. 0. 0. 0. 0. 0.
      0. 0. 0. 0. 0. 0. 0. 0. 0. 0. 0. 0. 0. 0. 0. 0. 0. 0. 0. 0. 0. 0.
      0. 0. 0. 0. 0. 0. 0. 0. 0. 0.</_>
    <_>
      0. 0. 0. 0. 0. 0. 0. 0. 0. 0. 0. 0. 0. 0. 0. 0. 0. 0. 0. 0. 0. 0.
      0. 0. 0. 72. 153. 152. 125. 17. 0. 0. 0. 0. 0. 0. 0. 0. 0. 0. 0.
      0. 0. 0. 0. 118. 252. 251. 252. 185. 45. 0. 0. 0. 0. 0. 0. 0. 0.
      0. 0. 0. 0. 0. 0. 96. 244. 252. 253. 253. 160. 40. 0. 0. 0. 0. 0.
      0. 0. 0. 0. 0. 0. 0. 0. 12. 46. 141. 253. 253. 249. 142. 0. 0. 0.
      0. 0. 0. 0. 0. 0. 0. 0. 0. 0. 0. 0. 0. 160. 249. 252. 158. 0. 0.
      0. 0. 0. 0. 0. 0. 0. 0. 0. 0. 0. 0. 0. 0. 67. 236. 252. 225. 0. 0.
      0. 0. 0. 0. 0. 0. 0. 0. 0. 0. 0. 0. 0. 0. 68. 237. 253. 253. 0. 0.
      0. 0. 0. 0. 0. 0. 0. 0. 0. 0. 0. 0. 0. 0. 101. 243. 252. 239. 0.
      0. 0. 0. 0. 0. 0. 0. 0. 0. 0. 0. 0. 0. 0. 0. 205. 253. 242. 120.
      0. 0. 0. 0. 0. 0. 0. 0. 0. 0. 0. 0. 0. 5. 47. 208. 253. 253. 213.
      22. 0. 0. 18. 45. 56. 11. 0. 0. 0. 0. 0. 0. 0. 107. 218. 252. 253.
      253. 237. 161. 152. 152. 188. 224. 228. 106. 0. 0. 0. 0. 0. 0. 91.
      253. 252. 251. 252. 253. 251. 252. 253. 252. 251. 253. 252. 251.
      0. 0. 0. 0. 0. 38. 194. 253. 253. 252. 253. 253. 252. 253. 253.
      253. 252. 253. 253. 151. 0. 0. 0. 0. 0. 79. 242. 253. 253. 252.
      253. 253. 248. 203. 186. 185. 185. 168. 68. 17. 0. 0. 0. 0. 0. 9.
      130. 202. 202. 110. 67. 67. 62. 18. 0. 0. 0. 0. 0. 0. 0. 0. 0. 0.
      0. 0. 0. 0. 0. 0. 0. 0. 0. 0. 0. 0. 0. 0. 0. 0. 0. 0. 0. 0. 0. 0.
      0. 0. 0. 0. 0. 0. 0. 0. 0. 0. 0. 0. 0. 0. 0. 0. 0. 0. 0. 0. 0. 0.
      0. 0. 0. 0. 0. 0. 0. 0. 0. 0. 0. 0. 0. 0. 0. 0. 0. 0. 0. 0. 0. 0.
      0. 0. 0. 0. 0. 0. 0. 0. 0. 0. 0. 0.</_>
    <_>
      0. 0. 0. 0. 0. 0. 0. 0. 0. 0. 0. 0. 0. 0. 0. 0. 0. 0. 0. 0. 0. 0.
      0. 0. 0. 0. 0. 0. 0. 0. 0. 0. 0. 0. 0. 0. 0. 0. 0. 0. 0. 0. 0. 0.
      0. 11. 176. 253. 130. 6. 0. 0. 0. 0. 0. 0. 0. 0. 0. 0. 0. 0. 0. 0.
      0. 56. 228. 252. 239. 206. 114. 20. 0. 0. 0. 0. 0. 0. 0. 0. 0. 0.
      0. 0. 0. 45. 224. 251. 252. 253. 245. 131. 0. 0. 0. 0. 0. 0. 0. 0.
      0. 0. 0. 0. 0. 0. 27. 191. 240. 253. 253. 253. 209. 23. 0. 0. 0.
      0. 0. 0. 0. 0. 0. 0. 0. 0. 0. 22. 101. 210. 252. 253. 253. 50. 0.
      0. 0. 0. 0. 0. 0. 0. 0. 0. 0. 0. 0. 0. 0. 22. 207. 252. 253. 118.
      0. 0. 0. 0. 0. 0. 0. 0. 0. 0. 0. 0. 0. 0. 0. 18. 203. 253. 253.
      151. 0. 0. 0. 0. 0. 0. 0. 0. 0. 0. 0. 0. 0. 0. 18. 181. 249. 253.
      254. 70. 0. 0. 0. 0. 0. 0. 0. 0. 0. 0. 0. 0. 0. 11. 104. 239. 252.
      252. 180. 16. 15. 17. 7. 0. 0. 0. 0. 0. 0. 0. 0. 0. 21. 157. 253.
      253. 252. 252. 46. 93. 174. 185. 115. 0. 0. 0. 0. 0. 0. 0. 0. 40.
      186. 253. 254. 254. 253. 253. 254. 253. 253. 254. 135. 0. 0. 0. 0.
      0. 0. 0. 18. 226. 253. 252. 253. 253. 252. 252. 253. 252. 252.
      248. 152. 0. 0. 0. 0. 0. 0. 18. 161. 253. 252. 251. 252. 253. 252.
      252. 253. 252. 252. 107. 24. 0. 0. 0. 0. 0. 0. 29. 208. 253. 240.
      252. 253. 226. 214. 157. 135. 27. 0. 0. 0. 0. 0. 0. 0. 0. 0. 4.
      65. 101. 73. 100. 101. 47. 31. 9. 0. 0. 0. 0. 0. 0. 0. 0. 0. 0. 0.
      0. 0. 0. 0. 0. 0. 0. 0. 0. 0. 0. 0. 0. 0. 0. 0. 0. 0. 0. 0. 0. 0.
      0. 0. 0. 0. 0. 0. 0. 0. 0. 0. 0. 0. 0. 0. 0. 0. 0. 0. 0. 0. 0. 0.
      0. 0. 0. 0. 0. 0. 0. 0. 0. 0. 0. 0. 0.</_>
    <_>
      0. 0. 0. 0. 0. 0. 0. 0. 0. 0. 0. 0. 0. 0. 0. 0. 0. 0. 0. 0. 0. 0.
      0. 0. 0. 0. 0. 0. 0. 0. 0. 0. 0. 0. 0. 0. 0. 0. 0. 0. 0. 0. 0. 0.
      0. 0. 0. 0. 0. 0. 0. 0. 0. 0. 0. 0. 0. 0. 0. 0. 0. 0. 0. 0. 5. 68.
      101. 102. 101. 93. 63. 66. 56. 11. 1. 0. 0. 0. 0. 0. 0. 0. 0. 0.
      39. 177. 194. 185. 185. 181. 225. 235. 229. 190. 106. 0. 0. 0. 0.
      0. 0. 0. 0. 0. 0. 2. 2. 0. 0. 0. 14. 23. 115. 248. 155. 0. 0. 0.
      0. 0. 0. 0. 0. 0. 0. 0. 0. 0. 0. 0. 10. 118. 232. 179. 30. 0. 0.
      0. 0. 0. 0. 0. 0. 0. 0. 0. 0. 0. 0. 0. 56. 236. 197. 0. 0. 0. 0.
      0. 0. 0. 0. 0. 0. 0. 0. 0. 0. 0. 2. 76. 224. 174. 3. 0. 0. 0. 0.
      0. 0. 0. 0. 0. 0. 0. 0. 0. 0. 0. 30. 209. 154. 34. 0. 0. 0. 0. 0.
      0. 0. 0. 0. 0. 0. 0. 0. 0. 0. 9. 156. 203. 15. 0. 0. 0. 0. 0. 0.
      0. 0. 0. 0. 0. 0. 0. 0. 0. 0. 127. 232. 66. 0. 0. 0. 0. 0. 0. 0.
      0. 0. 0. 0. 0. 0. 0. 0. 0. 37. 253. 134. 4. 0. 0. 0. 0. 0. 0. 0.
      0. 0. 0. 0. 0. 0. 0. 0. 4. 143. 246. 60. 0. 0. 0. 0. 0. 0. 0. 0.
      0. 0. 0. 0. 0. 0. 0. 0. 6. 152. 222. 10. 0. 0. 0. 0. 0. 0. 0. 0.
      0. 0. 0. 0. 0. 0. 0. 0. 0. 109. 251. 145. 42. 14. 4. 4. 4. 4. 2.
      0. 0. 0. 0. 0. 0. 0. 0. 0. 0. 15. 138. 235. 222. 180. 160. 160.
      160. 160. 131. 37. 0. 0. 0. 0. 0. 0. 0. 0. 0. 0. 0. 29. 128. 168.
      205. 155. 212. 241. 239. 75. 0. 0. 0. 0. 0. 0. 0. 0. 0. 0. 0. 0.
      0. 0. 0. 0. 0. 0. 0. 0. 0. 0. 0. 0. 0. 0. 0. 0. 0. 0. 0. 0. 0. 0.
      0. 0. 0. 0. 0. 0. 0. 0. 0.</_>
    <_>
      0. 0. 0. 0. 0. 0. 0. 0. 0. 0. 0. 0. 0. 0. 0. 0. 0. 0. 0. 0. 0. 0.
      0. 0. 0. 0. 0. 0. 0. 0. 0. 0. 0. 0. 0. 0. 0. 0. 0. 0. 0. 0. 0. 0.
      0. 0. 0. 0. 0. 0. 106. 246. 101. 0. 0. 0. 0. 0. 0. 0. 0. 0. 0. 0.
      0. 0. 0. 0. 40. 158. 253. 253. 238. 64. 1. 0. 0. 0. 0. 0. 0. 0. 0.
      0. 0. 0. 0. 2. 166. 251. 250. 226. 253. 171. 13. 0. 0. 0. 0. 0. 0.
      0. 0. 0. 0. 0. 6. 125. 253. 242. 105. 56. 253. 203. 25. 0. 0. 0.
      0. 0. 0. 0. 0. 0. 0. 0. 75. 245. 218. 92. 1. 36. 253. 203. 25. 0.
      0. 0. 0. 0. 0. 0. 0. 0. 0. 0. 104. 253. 95. 0. 0. 46. 253. 203.
      26. 0. 0. 0. 0. 0. 0. 0. 0. 0. 0. 0. 15. 35. 6. 0. 0. 49. 253.
      203. 25. 0. 0. 0. 0. 0. 0. 0. 0. 0. 0. 0. 0. 0. 0. 0. 0. 86. 253.
      203. 25. 0. 0. 0. 0. 0. 0. 0. 0. 0. 0. 0. 5. 23. 35. 31. 23. 110.
      253. 171. 11. 0. 0. 0. 0. 0. 0. 0. 0. 0. 0. 13. 117. 198. 221.
      213. 198. 219. 253. 122. 1. 0. 0. 0. 0. 0. 0. 0. 0. 0. 0. 81. 246.
      253. 238. 228. 253. 254. 253. 182. 17. 0. 0. 0. 0. 0. 0. 0. 0. 0.
      0. 178. 253. 146. 24. 87. 252. 242. 202. 245. 202. 43. 0. 0. 0. 0.
      0. 0. 0. 0. 0. 82. 245. 161. 134. 234. 247. 125. 25. 95. 232. 184.
      15. 0. 0. 0. 0. 0. 0. 0. 0. 23. 183. 251. 252. 231. 126. 8. 0. 0.
      72. 207. 23. 0. 0. 0. 0. 0. 0. 0. 0. 0. 30. 98. 99. 56. 0. 0. 0.
      0. 0. 74. 6. 0. 0. 0. 0. 0. 0. 0. 0. 0. 0. 0. 0. 0. 0. 0. 0. 0. 0.
      0. 0. 0. 0. 0. 0. 0. 0. 0. 0. 0. 0. 0. 0. 0. 0. 0. 0. 0. 0. 0. 0.
      0. 0. 0. 0. 0. 0. 0. 0. 0. 0. 0. 0. 0. 0. 0. 0. 0. 0. 0. 0. 0. 0.
      0.</_>
    <_>
      0. 0. 0. 0. 0. 0. 0. 0. 0. 0. 0. 0. 0. 0. 0. 0. 0. 0. 0. 0. 0. 0.
      0. 0. 0. 0. 0. 0. 0. 0. 0. 0. 0. 0. 0. 0. 0. 0. 0. 0. 0. 0. 0. 0.
      0. 0. 0. 0. 0. 0. 0. 0. 0. 0. 0. 0. 0. 0. 0. 0. 0. 0. 0. 0. 0. 0.
      0. 0. 8. 27. 106. 214. 234. 119. 12. 0. 0. 0. 0. 0. 0. 0. 0. 0. 0.
      0. 0. 21. 164. 200. 248. 252. 252. 243. 117. 0. 0. 0. 0. 0. 0. 0.
      0. 0. 0. 2. 48. 216. 249. 224. 156. 67. 211. 252. 162. 0. 0. 0. 0.
      0. 0. 0. 0. 0. 0. 13. 178. 254. 200. 56. 0. 0. 198. 253. 163. 0.
      0. 0. 0. 0. 0. 0. 0. 0. 0. 127. 248. 253. 80. 1. 0. 0. 197. 252.
      162. 0. 0. 0. 0. 0. 0. 0. 0. 0. 0. 208. 248. 80. 2. 0. 1. 70. 245.
      237. 58. 0. 0. 0. 0. 0. 0. 0. 0. 0. 0. 205. 148. 0. 0. 0. 19. 180.
      252. 172. 14. 0. 0. 0. 0. 0. 0. 0. 0. 0. 0. 167. 74. 0. 0. 12.
      130. 253. 233. 79. 0. 0. 0. 0. 0. 0. 0. 0. 0. 0. 0. 9. 4. 0. 18.
      145. 248. 245. 87. 2. 0. 0. 0. 0. 0. 0. 0. 0. 0. 0. 0. 0. 0. 13.
      139. 248. 252. 236. 59. 29. 29. 29. 18. 0. 0. 0. 0. 0. 0. 0. 32.
      93. 155. 216. 252. 252. 253. 253. 252. 252. 253. 250. 188. 25. 0.
      0. 0. 0. 0. 47. 199. 247. 252. 253. 231. 187. 174. 136. 72. 110.
      72. 70. 42. 13. 0. 0. 0. 0. 0. 101. 252. 252. 248. 192. 37. 2. 0.
      0. 0. 0. 0. 0. 0. 0. 0. 0. 0. 0. 0. 82. 243. 180. 117. 19. 0. 0.
      0. 0. 0. 0. 0. 0. 0. 0. 0. 0. 0. 0. 0. 0. 0. 0. 0. 0. 0. 0. 0. 0.
      0. 0. 0. 0. 0. 0. 0. 0. 0. 0. 0. 0. 0. 0. 0. 0. 0. 0. 0. 0. 0. 0.
      0. 0. 0. 0. 0. 0. 0. 0. 0. 0. 0. 0. 0. 0. 0. 0. 0. 0. 0. 0. 0. 0.
      0. 0. 0. 0.</_>
    <_>
      0. 0. 0. 0. 0. 0. 0. 0. 0. 0. 0. 0. 0. 0. 0. 0. 0. 0. 0. 0. 0. 0.
      0. 0. 0. 0. 0. 0. 0. 0. 0. 0. 0. 0. 0. 0. 0. 0. 0. 0. 0. 0. 0. 0.
      0. 0. 0. 0. 0. 76. 196. 113. 0. 0. 0. 0. 0. 0. 0. 0. 0. 0. 0. 0.
      0. 0. 0. 18. 127. 222. 254. 248. 187. 73. 3. 0. 0. 0. 0. 0. 0. 0.
      0. 0. 0. 0. 44. 182. 251. 237. 141. 131. 248. 198. 24. 0. 0. 0. 0.
      0. 0. 0. 0. 0. 0. 48. 215. 249. 203. 75. 0. 0. 188. 240. 75. 0. 0.
      0. 0. 0. 0. 0. 0. 0. 2. 172. 245. 164. 26. 1. 0. 0. 92. 254. 168.
      0. 0. 0. 0. 0. 0. 0. 0. 0. 0. 77. 93. 0. 0. 0. 0. 0. 0. 249. 172.
      0. 0. 0. 0. 0. 0. 0. 0. 0. 0. 0. 0. 0. 0. 0. 0. 0. 78. 252. 171.
      0. 0. 0. 0. 0. 0. 0. 0. 0. 0. 0. 0. 0. 0. 0. 0. 0. 190. 254. 117.
      0. 0. 0. 0. 0. 0. 0. 0. 0. 0. 11. 31. 55. 68. 68. 51. 34. 220.
      227. 39. 0. 0. 0. 0. 0. 0. 0. 0. 0. 23. 166. 215. 241. 254. 254.
      236. 214. 254. 187. 19. 0. 0. 0. 0. 0. 0. 0. 0. 16. 197. 254. 254.
      249. 227. 227. 240. 254. 254. 114. 2. 0. 0. 0. 0. 0. 0. 0. 0. 14.
      182. 254. 229. 92. 0. 29. 188. 254. 236. 228. 79. 0. 0. 0. 0. 0.
      0. 0. 0. 0. 93. 254. 216. 113. 130. 207. 252. 191. 44. 220. 233.
      12. 0. 0. 0. 0. 0. 0. 0. 0. 3. 172. 230. 246. 250. 231. 189. 41.
      0. 74. 203. 134. 0. 0. 0. 0. 0. 0. 0. 0. 0. 12. 54. 85. 93. 55.
      12. 0. 0. 2. 27. 26. 0. 0. 0. 0. 0. 0. 0. 0. 0. 0. 0. 0. 0. 0. 0.
      0. 0. 0. 0. 0. 0. 0. 0. 0. 0. 0. 0. 0. 0. 0. 0. 0. 0. 0. 0. 0. 0.
      0. 0. 0. 0. 0. 0. 0. 0. 0. 0. 0. 0. 0. 0. 0. 0. 0. 0. 0. 0. 0. 0.
      0. 0. 0. 0. 0.</_>
    <_>
      0. 0. 0. 0. 0. 0. 0. 0. 0. 0. 0. 0. 0. 0. 0. 0. 0. 0. 0. 0. 0. 0.
      0. 0. 0. 0. 0. 0. 0. 0. 0. 0. 0. 0. 0. 0. 0. 0. 0. 0. 0. 0. 0. 0.
      0. 0. 0. 0. 0. 0. 0. 0. 0. 0. 0. 0. 0. 0. 0. 0. 0. 0. 0. 0. 0. 0.
      0. 0. 0. 0. 0. 0. 0. 0. 0. 0. 0. 0. 0. 0. 0. 0. 0. 0. 0. 0. 0. 0.
      78. 152. 152. 152. 153. 56. 1. 0. 0. 0. 0. 0. 0. 0. 0. 0. 0. 7.
      76. 173. 247. 252. 244. 234. 248. 201. 25. 0. 0. 0. 0. 0. 0. 0. 0.
      0. 0. 129. 233. 252. 248. 183. 96. 65. 153. 235. 76. 0. 0. 0. 0.
      0. 0. 0. 0. 0. 0. 254. 253. 199. 64. 0. 0. 0. 18. 231. 167. 0. 0.
      0. 0. 0. 0. 0. 0. 0. 0. 89. 102. 13. 0. 0. 0. 0. 0. 215. 201. 0.
      0. 0. 0. 0. 0. 0. 0. 0. 0. 1. 2. 0. 0. 0. 0. 0. 23. 235. 201. 0.
      0. 0. 0. 0. 0. 0. 0. 0. 0. 0. 0. 0. 0. 0. 0. 2. 155. 249. 142. 0.
      0. 0. 0. 0. 0. 0. 0. 0. 0. 0. 0. 0. 9. 22. 0. 55. 254. 216. 32. 0.
      0. 0. 0. 0. 0. 0. 0. 0. 0. 19. 173. 232. 236. 241. 232. 242. 253.
      184. 16. 0. 0. 0. 0. 0. 0. 0. 0. 0. 0. 38. 227. 252. 187. 219.
      252. 252. 253. 242. 207. 141. 74. 39. 0. 0. 0. 0. 0. 0. 0. 13.
      173. 232. 66. 188. 253. 215. 51. 82. 134. 177. 168. 26. 0. 0. 0.
      0. 0. 0. 0. 0. 76. 232. 251. 249. 199. 50. 0. 0. 0. 0. 0. 0. 2. 1.
      0. 0. 0. 0. 0. 0. 5. 61. 131. 116. 40. 0. 0. 0. 0. 0. 0. 0. 32.
      12. 0. 0. 0. 0. 0. 0. 0. 0. 0. 0. 0. 0. 0. 0. 0. 0. 0. 0. 0. 0. 0.
      0. 0. 0. 0. 0. 0. 0. 0. 0. 0. 0. 0. 0. 0. 0. 0. 0. 0. 0. 0. 0. 0.
      0. 0. 0. 0. 0. 0. 0. 0. 0. 0. 0. 0. 0. 0. 0. 0. 0.</_>
    <_>
      0. 0. 0. 0. 0. 0. 0. 0. 0. 0. 0. 0. 0. 0. 0. 0. 0. 0. 0. 0. 0. 0.
      0. 0. 0. 0. 0. 0. 0. 0. 0. 0. 0. 0. 0. 0. 0. 0. 0. 0. 0. 0. 0. 0.
      0. 0. 0. 0. 0. 0. 0. 0. 0. 0. 0. 0. 0. 0. 0. 0. 0. 0. 0. 0. 0. 0.
      0. 15. 137. 241. 211. 187. 187. 167. 69. 0. 0. 0. 0. 0. 0. 0. 0.
      0. 0. 4. 55. 185. 249. 253. 243. 183. 174. 237. 232. 52. 0. 0. 0.
      0. 0. 0. 0. 0. 0. 71. 223. 253. 212. 111. 8. 1. 0. 122. 250. 133.
      0. 0. 0. 0. 0. 0. 0. 0. 0. 157. 253. 173. 59. 2. 0. 0. 0. 91. 244.
      167. 0. 0. 0. 0. 0. 0. 0. 0. 0. 28. 65. 2. 0. 0. 0. 0. 0. 135.
      253. 125. 0. 0. 0. 0. 0. 0. 0. 0. 0. 0. 0. 0. 0. 0. 0. 0. 0. 154.
      252. 70. 0. 0. 0. 0. 0. 0. 0. 0. 0. 0. 0. 0. 0. 0. 0. 0. 16. 234.
      215. 11. 0. 0. 0. 0. 0. 0. 0. 0. 0. 0. 0. 0. 0. 5. 13. 19. 112.
      254. 130. 0. 0. 0. 0. 0. 0. 0. 0. 0. 0. 0. 0. 3. 80. 141. 179.
      189. 239. 253. 133. 0. 0. 0. 0. 0. 0. 0. 0. 0. 0. 29. 141. 244.
      253. 253. 251. 251. 253. 253. 253. 122. 0. 0. 0. 0. 0. 0. 0. 10.
      80. 231. 227. 174. 124. 62. 135. 239. 226. 95. 222. 217. 44. 0. 0.
